word,dim1,dim2,dim3,dim4,dim5,dim6,dim7,dim8,dim9,dim10,dim11,dim12,dim13,dim14,dim15,dim16,dim17,dim18,dim19,dim20,dim21,dim22,dim23,dim24,dim25,dim26,dim27,dim28,dim29,dim30,dim31,dim32,dim33,dim34,dim35,dim36,dim37,dim38,dim39,dim40,dim41,dim42,dim43,dim44,dim45,dim46,dim47,dim48,dim49,dim50,dim51,dim52,dim53,dim54,dim55,dim56,dim57,dim58,dim59,dim60,dim61,dim62,dim63,dim64,dim65,dim66,dim67,dim68,dim69,dim70,dim71,dim72,dim73,dim74,dim75,dim76,dim77,dim78,dim79,dim80,dim81,dim82,dim83,dim84,dim85,dim86,dim87,dim88,dim89,dim90,dim91,dim92,dim93,dim94,dim95,dim96,dim97,dim98,dim99,dim100,dim101,dim102,dim103,dim104,dim105,dim106,dim107,dim108,dim109,dim110,dim111,dim112,dim113,dim114,dim115,dim116,dim117,dim118,dim119,dim120,dim121,dim122,dim123,dim124,dim125,dim126,dim127,dim128,dim129,dim130,dim131,dim132,dim133,dim134,dim135,dim136,dim137,dim138,dim139,dim140,dim141,dim142,dim143,dim144,dim145,dim146,dim147,dim148,dim149,dim150,dim151,dim152,dim153,dim154,dim155,dim156,dim157,dim158,dim159,dim160,dim161,dim162,dim163,dim164,dim165,dim166,dim167,dim168,dim169,dim170,dim171,dim172,dim173,dim174,dim175,dim176,dim177,dim178,dim179,dim180,dim181,dim182,dim183,dim184,dim185,dim186,dim187,dim188,dim189,dim190,dim191,dim192,dim193,dim194,dim195,dim196,dim197,dim198,dim199,dim200,dim201,dim202,dim203,dim204,dim205,dim206,dim207,dim208,dim209,dim210,dim211,dim212,dim213,dim214,dim215,dim216,dim217,dim218,dim219,dim220,dim221,dim222,dim223,dim224,dim225,dim226,dim227,dim228,dim229,dim230,dim231,dim232,dim233,dim234,dim235,dim236,dim237,dim238,dim239,dim240,dim241,dim242,dim243,dim244,dim245,dim246,dim247,dim248,dim249,dim250,dim251,dim252,dim253,dim254,dim255,dim256,dim257,dim258,dim259,dim260,dim261,dim262,dim263,dim264,dim265,dim266,dim267,dim268,dim269,dim270,dim271,dim272,dim273,dim274,dim275,dim276,dim277,dim278,dim279,dim280,dim281,dim282,dim283,dim284,dim285,dim286,dim287,dim288,dim289,dim290,dim291,dim292,dim293,dim294,dim295,dim296,dim297,dim298,dim299,dim300
cognition,0.18066406,-0.0107421875,-0.044677734,0.13964844,0.1484375,0.12695312,0.38476562,-0.12402344,0.11425781,0.033691406,0.0010986328,-0.107910156,-0.09765625,0.49804688,-0.051513672,0.00029182434,0.15722656,0.28320312,0.38867188,-0.10595703,0.0070495605,-0.2890625,-0.20019531,0.115722656,-0.1015625,-0.34179688,-0.30078125,0.13769531,-0.18359375,0.12207031,-0.013122559,-0.021484375,-0.111816406,0.048095703,-0.32421875,-0.43164062,-0.27929688,0.5234375,0.061767578,-0.12109375,-0.234375,0.24316406,0.07128906,0.375,0.13964844,0.008178711,0.19921875,-0.24316406,-0.17578125,0.25,-0.34960938,-0.06542969,-0.5625,-0.018798828,0.38867188,0.0006866455,-0.21679688,-0.34375,0.06298828,-0.33984375,-0.28710938,0.47265625,0.29101562,0.041503906,-0.18164062,0.032714844,0.02319336,0.42578125,0.06225586,-0.04736328,-0.32226562,-0.46484375,0.092285156,-0.16796875,-0.1015625,-0.6484375,0.19921875,-0.023071289,0.07373047,-0.015319824,0.06347656,-0.0031280518,0.28320312,0.03491211,0.012329102,-0.0087890625,0.30273438,0.31835938,-0.26953125,-0.0034484863,0.17480469,-0.19238281,-0.26171875,0.029052734,0.025512695,-0.15625,0.4296875,-0.26757812,-0.038330078,-0.10595703,0.43554688,-0.06542969,0.083984375,-0.088378906,0.453125,-0.19726562,0.005279541,0.10888672,0.21875,0.2109375,-0.2421875,-0.017456055,-0.064453125,-0.083496094,0.53125,-0.020996094,-0.34375,-0.21972656,0.46289062,-0.1328125,-0.03955078,0.16992188,-0.095214844,-0.118652344,0.1796875,0.18457031,-0.40234375,0.62109375,-0.078125,0.19433594,0.12792969,-0.26171875,-0.32421875,-0.26953125,-0.27148438,-0.07128906,0.30664062,0.22558594,0.0041503906,-0.11279297,-0.026123047,-0.057617188,-0.82421875,0.047851562,-0.30859375,0.007293701,0.0546875,0.36914062,0.008850098,-0.40429688,0.045410156,0.019165039,-0.3984375,0.075683594,-0.12011719,-0.328125,-0.053222656,-0.09277344,-0.0703125,0.39453125,-0.076171875,-0.045166016,0.08984375,0.27929688,0.05883789,0.109375,0.025268555,0.08496094,0.001159668,0.091308594,0.103027344,0.17871094,-0.11328125,0.107910156,0.015319824,0.1328125,-0.16601562,-0.11816406,0.24707031,0.10644531,0.13476562,0.12402344,-0.0022583008,-0.40625,0.14550781,0.23730469,-0.07421875,-0.296875,-0.30859375,-0.080078125,-0.21289062,-0.20117188,-0.04711914,-0.22167969,0.044677734,-0.037841797,0.22949219,-0.049072266,-0.026489258,-0.020507812,-0.30859375,-0.4375,-0.2890625,-0.19433594,-0.041259766,-0.30859375,0.08154297,0.10205078,-0.0055236816,-0.019042969,-0.44335938,-0.27734375,-0.26757812,0.28710938,0.032226562,-0.16503906,0.265625,-0.044677734,-0.18066406,-0.026123047,-0.0234375,-0.04321289,0.40039062,-0.23046875,-0.040771484,-0.021484375,-0.07519531,0.18359375,-0.65625,0.4140625,0.45703125,0.0234375,0.21679688,0.107421875,0.08935547,-0.17773438,-0.22949219,-0.03881836,0.2890625,-0.14746094,0.15722656,-0.13964844,0.14355469,-0.12792969,-0.119140625,0.27148438,-0.05419922,0.20605469,-0.18847656,-0.43164062,0.16308594,-0.31640625,-0.18359375,0.46484375,-0.076171875,-0.6015625,-0.09765625,-0.016845703,-0.21875,-0.022949219,-0.115234375,-0.265625,-0.11767578,0.13476562,-0.16699219,-0.04345703,0.010864258,-0.2578125,-0.33984375,0.057617188,-0.27929688,-0.048339844,0.027709961,-0.0076904297,-0.107421875,-0.032958984,0.14941406,-0.057617188,-0.21191406,0.32421875,0.37890625,-0.005065918,0.21679688,-0.11816406,-0.06689453,-0.55078125,0.14550781,-0.09667969,0.30859375,0.28515625,-0.25390625,0.104003906,0.14453125,0.06591797,0.011962891,0.29101562,0.018920898,0.0099487305,0.036376953,0.022460938
month,0.03881836,0.15917969,-0.08886719,0.06542969,-0.09863281,-0.045410156,0.21875,-0.24316406,0.13964844,0.15429688,0.05126953,0.103027344,0.10498047,-0.17773438,-0.023803711,0.15820312,-0.029052734,-0.080566406,-0.13867188,-0.06298828,0.027954102,-0.05053711,-0.16601562,-0.18164062,-0.063964844,0.016479492,0.27539062,0.18847656,0.057373047,0.09033203,0.11279297,-0.119628906,0.0061950684,0.021484375,0.043945312,-0.022094727,-0.24707031,-0.20507812,-0.31054688,0.0067749023,0.044433594,-0.1171875,0.22363281,0.13183594,-0.21679688,-0.05053711,0.095703125,0.1875,0.06689453,0.057861328,0.14355469,-0.2265625,-0.12597656,-0.048828125,0.011169434,0.15722656,-0.076660156,-0.0069885254,0.07714844,-0.1328125,-0.12011719,0.15722656,-0.013061523,0.111816406,0.043945312,0.1015625,0.038330078,-0.018798828,0.20019531,0.11621094,0.04272461,-0.0703125,-0.06201172,0.19042969,0.07128906,0.0061950684,0.049072266,0.091308594,0.21289062,0.1875,0.034423828,-0.1953125,-0.091308594,0.13476562,0.06738281,-0.078125,-0.17089844,-0.10546875,0.024291992,0.056640625,0.22265625,0.18164062,-0.20703125,-0.40820312,-0.3203125,-0.22558594,0.055419922,0.10253906,0.11035156,-0.096191406,0.16015625,-0.10449219,-0.20019531,-0.009765625,-0.11669922,-0.25390625,-0.095703125,0.10058594,-0.04736328,-0.083984375,0.033935547,0.09863281,0.17285156,-0.06225586,0.09814453,-0.072753906,0.1875,0.067871094,0.13085938,0.06689453,0.057861328,-0.19824219,-0.13574219,-0.125,0.22363281,0.056396484,0.22949219,-0.05053711,0.064453125,-0.05859375,-0.13769531,-0.104003906,0.07373047,-0.125,-0.17675781,-0.16113281,0.025390625,-0.014465332,-0.12988281,0.099121094,0.12890625,-0.057617188,-0.103515625,0.04736328,-0.07763672,0.04345703,-0.03149414,-0.041259766,-0.21386719,-0.15039062,0.030029297,0.123535156,-0.036132812,-0.09082031,0.20117188,-0.14648438,-0.08251953,-0.123046875,0.051757812,0.07128906,0.099609375,0.063964844,0.12109375,-0.011047363,-0.06225586,0.01953125,0.17480469,-0.084472656,0.072753906,-0.17773438,0.07763672,0.020996094,-0.125,-0.23339844,0.05493164,-0.171875,0.04663086,0.095214844,0.044433594,0.15234375,-0.25195312,0.03515625,-0.10498047,0.030883789,0.21484375,0.09375,0.07128906,0.076171875,0.10546875,-0.17382812,0.15820312,-0.02758789,0.030151367,-0.03515625,-0.21679688,0.09033203,0.14453125,0.038330078,-0.11621094,0.005340576,-0.0859375,0.05419922,0.012390137,0.057861328,0.20898438,-0.13574219,-0.096191406,0.13378906,0.053466797,-0.11425781,0.091796875,0.010314941,-0.14550781,0.00018692017,-0.20214844,-0.022949219,0.088378906,-0.12597656,-0.1640625,0.20898438,0.119140625,0.13378906,0.12402344,-0.06982422,-0.10205078,-0.27734375,0.004547119,0.080566406,-0.084472656,-0.12597656,-0.072265625,-0.025146484,-0.029907227,0.19824219,-0.03881836,0.039794922,0.06933594,0.059326172,0.03491211,-0.012268066,-0.040771484,0.125,0.10253906,-0.19921875,-0.099121094,-0.12597656,0.078125,0.115722656,0.07910156,0.0546875,-0.076660156,-0.053955078,-0.13769531,0.060791016,0.09814453,0.25195312,0.115234375,0.040771484,0.17480469,0.040527344,0.076660156,-0.09472656,0.03100586,-0.00491333,0.19042969,-0.053466797,-0.107910156,0.14550781,0.09765625,0.12890625,0.16894531,0.036621094,0.14746094,0.037597656,0.13574219,-0.064941406,-0.123046875,-0.06225586,0.018432617,-0.19628906,-0.041259766,0.0063476562,0.031982422,0.13867188,0.17773438,-0.14355469,-0.11376953,0.11230469,0.17089844,0.061767578,-0.015136719,-0.09326172,-0.16601562,-0.055664062,0.03173828,-0.15234375,-0.12695312,0.15234375,-0.010009766,-0.14941406
fuck,0.10449219,-0.3125,0.21386719,0.30859375,-0.16015625,0.09423828,-0.16015625,-0.032226562,0.16992188,0.08496094,-0.13867188,-0.23144531,-0.064941406,0.06689453,-0.21679688,0.18261719,-0.21777344,-0.0087890625,-0.07324219,-0.24414062,0.15234375,0.12060547,0.34765625,0.07421875,0.0703125,0.20507812,-0.12402344,0.18066406,0.10253906,-0.11767578,0.09082031,0.09716797,-0.01928711,0.1953125,-0.10888672,0.064941406,0.33203125,-0.07373047,-0.12792969,0.49609375,0.11669922,-0.06542969,0.30664062,0.12890625,-0.032714844,-0.17480469,-0.13378906,-0.27929688,-0.16699219,0.16015625,-0.31640625,-0.01953125,0.017333984,0.26367188,0.09765625,-0.013793945,-0.13671875,-0.21484375,0.020751953,-0.11767578,0.0703125,-0.11035156,0.033935547,-0.060302734,0.017456055,-0.40429688,-0.2109375,0.017578125,-0.21875,0.1015625,0.12988281,0.19921875,0.008361816,0.12792969,-0.45117188,-0.18945312,-0.08300781,0.20507812,-0.008361816,0.14355469,-0.28515625,0.12207031,-0.12158203,-0.296875,-0.31445312,0.25,0.12695312,0.26757812,0.34179688,-0.13476562,-0.12792969,0.2890625,-0.12890625,-0.017333984,-0.104003906,0.021240234,0.22753906,-0.031982422,-0.12988281,-0.09667969,-0.27539062,0.06689453,-0.064941406,-0.14648438,0.009094238,-0.18164062,-0.080566406,0.11816406,0.017089844,-0.025756836,-0.26171875,-0.4765625,0.06933594,-0.06982422,0.03491211,-0.00289917,0.060058594,0.021362305,0.19921875,-0.087890625,-0.25390625,-0.031982422,0.00049972534,0.037597656,0.18261719,-0.16113281,-0.6484375,-0.07080078,0.021118164,-0.12158203,-0.2265625,-0.0078125,0.24023438,0.29101562,0.019897461,0.08203125,-0.072753906,0.111328125,0.011474609,-0.002380371,0.31640625,-0.18066406,-0.07080078,0.0010528564,0.0010223389,0.23730469,0.040039062,-0.31054688,0.025024414,-0.15820312,0.16113281,-0.026489258,0.13769531,-0.21582031,-0.06933594,0.08203125,-0.14746094,-0.10205078,-0.14746094,-0.119140625,-0.087402344,0.10058594,-0.024658203,0.19433594,-0.055419922,-0.41015625,-0.0053710938,-0.16308594,-0.40625,0.20605469,-0.029052734,0.012268066,0.42382812,0.19628906,-0.17089844,-0.010620117,0.25,-0.1875,0.013183594,0.17675781,0.056152344,0.052734375,0.16992188,-0.19628906,0.006164551,0.24707031,-0.017822266,-0.13867188,0.14550781,0.040283203,0.2578125,0.076660156,0.16992188,0.20703125,0.203125,0.17089844,-0.095214844,-0.11035156,0.015563965,0.15429688,-0.059570312,0.26953125,-0.09082031,-0.08154297,0.011657715,-0.12207031,-0.27734375,-0.021606445,-0.24511719,0.049072266,-0.0032043457,0.20996094,-0.16894531,-0.008666992,-0.20605469,-0.10644531,0.23925781,0.076171875,-0.20117188,-0.07763672,-0.33203125,0.111328125,0.123046875,0.012268066,0.42773438,-0.088378906,-0.05102539,-0.021728516,-0.099121094,-0.20898438,-0.095214844,-0.18554688,-0.22753906,-0.044677734,0.375,0.13867188,-0.084472656,0.19042969,0.30859375,-0.020874023,0.22851562,-0.0703125,-0.13085938,-0.021728516,-0.14550781,-0.05834961,0.053222656,0.35351562,0.040039062,-0.025878906,0.088378906,0.021484375,-0.038085938,0.33789062,0.15527344,-0.28125,-0.16503906,0.01977539,0.20898438,-0.16210938,-0.099121094,0.0035095215,-0.053710938,-0.1875,-0.18164062,-0.00075531006,-0.26171875,-0.1953125,-0.07128906,-0.10839844,-0.34179688,0.2890625,0.41601562,0.19238281,0.15527344,-0.047851562,-0.29882812,0.11669922,-0.20410156,0.16894531,0.06201172,-0.07519531,0.13574219,0.24609375,0.07373047,-0.010803223,0.2109375,-0.14453125,0.050048828,-0.09814453,0.17089844,0.22363281,-0.40820312,0.13476562,-0.375,-0.234375,-0.107910156,-0.096191406,-0.15722656,0.030029297
king,0.12597656,0.029785156,0.008605957,0.13964844,-0.025634766,-0.036132812,0.111816406,-0.19824219,0.05126953,0.36328125,-0.2421875,-0.30273438,-0.17773438,-0.024902344,-0.16796875,-0.16992188,0.03466797,0.005218506,0.04638672,0.12890625,0.13671875,0.11279297,0.059570312,0.13671875,0.10107422,-0.17675781,-0.25195312,0.059814453,0.34179688,-0.03112793,0.10449219,0.061767578,0.12451172,0.40039062,-0.32226562,0.083984375,0.0390625,0.005859375,0.0703125,0.17285156,0.13867188,-0.23144531,0.28320312,0.14257812,0.34179688,-0.023925781,-0.10986328,0.033203125,-0.0546875,0.015319824,-0.16210938,0.15820312,-0.25976562,0.020141602,-0.16308594,0.0013580322,-0.14453125,-0.056884766,0.04296875,-0.024658203,0.18554688,0.44726562,0.0095825195,0.13183594,0.09863281,-0.18554688,-0.100097656,-0.13378906,-0.125,0.28320312,0.123046875,0.053222656,-0.17773438,0.0859375,-0.021850586,0.020507812,-0.13964844,0.025146484,0.13867188,-0.10546875,0.13867188,0.08886719,-0.07519531,-0.021362305,0.17285156,0.04638672,-0.265625,0.008911133,0.14941406,0.037841797,0.23828125,-0.12451172,-0.21777344,-0.18164062,0.029785156,0.057128906,-0.028930664,0.012451172,0.09667969,-0.23144531,0.05810547,0.06689453,0.07080078,-0.30859375,-0.21484375,0.14550781,-0.42773438,-0.009399414,0.15429688,-0.076660156,0.2890625,0.27734375,-0.0004863739,-0.13671875,0.32421875,-0.24609375,-0.003036499,-0.21191406,0.125,0.26953125,0.20410156,0.08251953,-0.20117188,-0.16015625,-0.037841797,-0.12011719,0.115234375,-0.041015625,-0.03955078,-0.08984375,0.0063476562,0.203125,0.18652344,0.2734375,0.06298828,0.14160156,-0.09814453,0.13867188,0.18261719,0.17382812,0.17382812,-0.23730469,0.17871094,0.06347656,0.23632812,-0.20898438,0.087402344,-0.16601562,-0.07910156,0.24316406,-0.08886719,0.12695312,-0.21679688,-0.17382812,-0.359375,-0.08251953,-0.064941406,0.05078125,0.13574219,-0.07470703,-0.1640625,0.0115356445,0.4453125,-0.21582031,-0.111328125,-0.19238281,0.17089844,-0.125,0.0026550293,0.19238281,-0.17480469,0.13964844,0.29296875,0.11328125,0.059570312,-0.063964844,0.099609375,-0.02722168,0.01965332,0.04272461,-0.24609375,0.063964844,-0.22558594,-0.16894531,0.00289917,0.08203125,0.34179688,0.04321289,0.1328125,0.14257812,0.076171875,0.059814453,-0.119140625,0.002746582,-0.06298828,-0.02722168,-0.0048217773,-0.08203125,-0.024902344,-0.40039062,-0.106933594,0.04248047,0.07763672,-0.11669922,0.07373047,-0.092285156,0.107910156,0.15820312,0.04248047,0.12695312,0.036132812,0.26757812,-0.10107422,-0.30273438,-0.057617188,0.05053711,0.0005264282,-0.20703125,-0.13867188,-0.008972168,-0.027832031,-0.14160156,0.20703125,-0.15820312,0.12792969,0.14941406,-0.022460938,-0.084472656,0.122558594,0.21582031,-0.21386719,-0.3125,-0.37304688,0.0040893555,0.107421875,0.106933594,0.07324219,0.008972168,-0.03881836,-0.12988281,0.14941406,-0.21484375,-0.0018386841,0.099121094,0.15722656,-0.11425781,-0.20507812,0.099121094,0.36914062,-0.19726562,0.03540039,0.109375,0.13183594,0.16699219,0.23535156,0.10498047,-0.49609375,-0.1640625,-0.15625,-0.052246094,0.103027344,0.24316406,-0.18847656,0.05078125,-0.09375,-0.06689453,0.022705078,0.076171875,0.2890625,0.31054688,-0.053710938,0.22851562,0.025146484,0.067871094,-0.12109375,-0.21582031,-0.2734375,-0.030761719,-0.33789062,0.15332031,0.23339844,-0.20800781,0.37304688,0.08203125,0.25195312,-0.076171875,-0.04663086,-0.022338867,0.029907227,-0.059326172,-0.0046691895,-0.24414062,-0.20996094,-0.28710938,-0.045410156,-0.17773438,-0.27929688,-0.0859375,0.091308594,0.25195312
brandy,-0.15820312,-0.010131836,-0.099609375,0.21289062,0.20703125,-0.026977539,0.16210938,-0.29101562,0.28515625,0.3359375,0.123535156,-0.32226562,-0.15039062,0.13964844,-0.21679688,0.33984375,-0.12890625,0.19824219,0.008483887,-0.12011719,0.296875,0.06591797,0.25,-0.17285156,0.21191406,0.12109375,-0.104003906,0.22558594,-0.23535156,0.19042969,0.038330078,-0.18359375,-0.14453125,0.20019531,-0.0859375,-0.10205078,0.03564453,-0.21679688,0.072265625,0.09472656,0.119628906,-0.11328125,0.24414062,-0.13964844,0.42578125,-0.19726562,-0.15820312,-0.07128906,-0.02355957,-0.11279297,-0.5546875,0.18359375,-0.3203125,-0.12988281,-0.27539062,-0.20117188,-0.009338379,0.25585938,-0.2578125,-0.28515625,-0.15234375,0.14648438,-0.13769531,0.016357422,0.23632812,0.10058594,-0.08496094,-0.5703125,0.13476562,0.06591797,0.10595703,0.037597656,0.171875,0.022460938,-0.23144531,0.31640625,0.032226562,-0.10644531,0.203125,-0.23632812,-0.12988281,-0.3046875,-0.076171875,-0.11279297,-0.125,0.43945312,-0.036621094,0.40820312,0.0074768066,0.24121094,-0.31835938,0.06591797,0.072265625,-0.05078125,-0.021362305,0.055664062,-0.0031585693,-0.041748047,0.072753906,-0.26367188,-0.02746582,0.091308594,0.111328125,-0.008056641,0.022827148,-0.14355469,0.19238281,0.34179688,0.020507812,-0.009338379,0.087402344,0.029418945,-0.14453125,-0.122558594,-0.38085938,-0.01574707,-0.026611328,-0.08154297,-0.2265625,-0.13378906,-0.123046875,0.064453125,-0.087402344,-0.06933594,0.14355469,0.038330078,-0.05834961,-0.15722656,-0.087402344,0.21484375,-0.40039062,0.35742188,-0.46679688,-0.16796875,-0.14160156,0.390625,0.042236328,0.16699219,-0.05859375,0.13378906,0.06298828,-0.18554688,-0.32421875,-0.2578125,-0.088378906,0.12158203,0.07714844,0.14257812,-0.25585938,-0.04663086,0.265625,0.09667969,0.049316406,-0.032958984,0.057373047,-0.13476562,-0.12597656,0.20898438,-0.52734375,0.14746094,-0.12451172,-0.15332031,-0.15234375,0.14550781,0.021972656,0.10449219,0.03466797,0.3671875,-0.05493164,-0.11376953,-0.15039062,0.12988281,0.16699219,-0.23339844,-0.4140625,0.060546875,0.028930664,-0.25,-0.06689453,0.0074157715,0.09423828,-0.115722656,-0.45898438,0.1796875,0.057373047,0.026977539,0.19042969,0.03930664,0.32226562,-0.028320312,-0.12158203,-0.029785156,-0.04272461,0.27148438,0.13378906,0.36328125,-0.0017242432,0.115234375,0.07373047,0.020263672,-0.041503906,0.012878418,0.04296875,0.17285156,0.1875,-0.24511719,0.08154297,0.110839844,0.05859375,-0.28320312,-0.38867188,-0.080566406,-0.13378906,0.2890625,-0.1875,0.091308594,-0.20996094,-0.028686523,0.203125,0.41601562,0.09814453,-0.03930664,-0.12451172,-0.20605469,0.390625,0.111328125,0.38867188,0.15917969,0.04736328,0.39453125,-0.14160156,-0.12207031,-0.34375,0.21972656,-0.103515625,-0.45703125,0.091796875,-0.1328125,0.29882812,-0.20507812,0.09863281,0.15136719,0.05859375,0.09326172,0.20019531,-0.045898438,-0.036865234,0.2421875,0.19335938,-0.04272461,0.09472656,0.05444336,0.43945312,0.25585938,0.028564453,-0.092285156,-0.15625,-0.084472656,-0.043701172,-0.18359375,0.0060424805,0.12158203,-0.15136719,0.40429688,-0.19335938,-0.19042969,-0.046875,-0.25390625,-0.33984375,-0.015380859,0.20898438,0.0016937256,-0.045410156,0.2421875,0.32617188,-0.15039062,0.07519531,-0.13183594,-0.43359375,0.080078125,-0.14746094,-0.3203125,0.47070312,-0.1953125,0.064941406,0.080566406,-0.07861328,0.14257812,-0.05078125,0.122558594,0.12060547,-0.3203125,-0.048095703,0.013244629,-0.025634766,-0.13769531,0.08496094,0.045654297,0.27929688,0.2578125
population,0.06347656,0.0038452148,0.0703125,-0.039794922,-0.05078125,-0.24804688,-0.17578125,-0.110839844,0.22363281,-0.1015625,-0.22851562,0.018554688,-0.021728516,0.032226562,-0.33789062,-0.022583008,-0.22167969,0.18164062,-0.17089844,-0.08642578,-0.15625,-0.2109375,0.28710938,-0.0703125,-0.328125,-0.4609375,-0.45703125,0.33007812,0.06591797,-0.006011963,0.15527344,-0.36132812,-0.29492188,0.02331543,-0.122558594,-0.007293701,0.063964844,0.068359375,0.004058838,0.43164062,0.10498047,0.020874023,0.016479492,0.05102539,0.18554688,-0.15722656,0.16601562,0.029296875,-0.25976562,-0.10107422,0.17773438,-0.27148438,-0.15332031,-0.32617188,-0.06933594,-0.25585938,-0.19824219,0.20507812,-0.028076172,0.10449219,0.103027344,-0.12988281,-0.15820312,-0.34179688,0.24121094,-0.15527344,-0.041259766,0.21679688,-0.19921875,-0.029052734,-0.30273438,-0.096191406,0.092285156,0.024169922,-0.0037994385,-0.18261719,-0.27148438,-0.15917969,0.1484375,0.19140625,-0.018066406,-0.061767578,0.095214844,0.21875,-0.34179688,-0.06591797,-0.42773438,0.08886719,0.1953125,-0.20996094,0.115722656,-0.19628906,-0.07421875,-0.16796875,-0.114746094,0.13867188,0.16601562,-0.42578125,0.26757812,-0.087402344,0.084472656,0.036621094,-0.26953125,0.15820312,-0.072265625,-0.39453125,-0.06347656,-0.012573242,-0.07470703,-0.19433594,-0.12451172,-0.44921875,-0.16699219,0.029174805,-0.34179688,0.15234375,0.07128906,-0.20996094,0.13476562,-0.20703125,-0.1796875,0.38867188,-0.38085938,-0.07470703,-0.003616333,0.37695312,-0.19433594,-0.21191406,-0.25390625,0.11035156,0.1328125,-0.15039062,-0.07373047,-0.025756836,-0.13769531,0.19140625,-0.056884766,0.091796875,-0.064453125,0.067871094,-0.011962891,-0.010498047,-0.038330078,0.40234375,0.07324219,-0.048828125,0.22460938,0.35351562,-0.025512695,-0.104003906,0.13964844,-0.044677734,-0.19238281,0.025024414,0.19335938,-0.20703125,-0.046142578,-0.14257812,-0.08642578,-0.18945312,-0.12011719,0.118652344,0.14941406,-0.28515625,0.076660156,0.16699219,0.18554688,0.12597656,0.21777344,0.14257812,-0.045166016,0.041503906,-0.1171875,0.25195312,0.22265625,0.19824219,0.12695312,0.11035156,-0.030761719,0.079589844,-0.076660156,-0.34179688,-0.1796875,-0.3671875,-0.08642578,0.001159668,0.12011719,0.11376953,0.12060547,0.34179688,0.10986328,-0.18652344,0.014099121,-0.0058898926,-0.18164062,0.13671875,0.079589844,0.1953125,-0.12890625,-0.19921875,-0.106933594,0.056396484,0.22460938,-0.28320312,0.08154297,-0.1953125,0.076171875,-0.0625,0.08886719,0.12158203,-0.11621094,0.107421875,-0.22460938,-0.1640625,-0.078125,0.14941406,-0.28320312,-0.03881836,0.029663086,0.21679688,-0.05029297,0.17773438,0.15234375,0.00019741058,0.09716797,-0.22851562,0.36328125,0.011352539,-0.19824219,0.31445312,0.025146484,-0.24804688,0.24804688,-0.1875,0.11425781,-0.15234375,-0.15527344,-0.009155273,0.13671875,-0.09814453,0.24609375,0.08251953,0.26367188,-0.1640625,0.18164062,0.05493164,0.28125,0.083496094,-0.16699219,0.2734375,-0.15039062,-0.22851562,-0.09863281,0.27929688,0.11328125,-0.19921875,-0.029663086,-0.33007812,-0.2890625,0.030395508,-0.20605469,-0.3125,0.099121094,0.19824219,-0.17089844,0.19238281,-0.08642578,0.034179688,-0.24414062,-0.056884766,-0.2265625,-0.18554688,0.0073547363,-0.17773438,-0.019897461,-0.44140625,0.05493164,-0.057861328,-0.1328125,-0.21484375,0.041259766,0.040527344,0.23632812,0.029663086,-0.24023438,-0.014099121,-0.11328125,-0.14746094,0.18164062,-0.026367188,0.11816406,-0.0625,-0.032470703,-0.034423828,0.22363281,-0.020263672,-0.12792969,-0.24804688,0.22070312,-0.20703125
performance,-0.0107421875,0.08886719,0.05053711,-0.080566406,0.107910156,0.0703125,0.021728516,-0.34375,0.26171875,0.37304688,-0.071777344,-0.049560547,0.071777344,-0.020141602,0.14550781,0.23144531,0.0154418945,0.104003906,0.076171875,-0.20800781,0.0703125,0.022705078,-0.234375,0.24316406,0.091796875,-0.06640625,-0.053222656,-0.080078125,-0.15234375,0.1875,0.0021209717,-0.06591797,0.029174805,-0.076660156,0.087402344,0.10644531,-0.017700195,0.13867188,0.07763672,-0.037841797,0.07519531,0.16015625,0.04345703,0.20898438,0.17578125,0.018554688,-0.17285156,-0.041748047,0.071777344,0.119628906,0.13769531,0.34765625,-0.16992188,0.25976562,0.1328125,-0.08154297,0.026000977,-0.03881836,0.13574219,0.12597656,0.14550781,0.17871094,-0.22460938,-0.28515625,0.03881836,0.053710938,0.025390625,0.14941406,0.23242188,0.068847656,0.040283203,-0.35742188,0.20117188,-0.114746094,0.024902344,-0.08544922,0.19921875,-0.15820312,0.13769531,0.017456055,0.17675781,0.024780273,0.016357422,0.088378906,0.25976562,-0.015625,-0.09667969,-0.05834961,-0.095703125,0.056884766,-0.020019531,0.032958984,-0.032470703,0.13769531,0.07470703,-0.19921875,-0.083496094,0.15429688,-0.11328125,-0.13769531,0.07128906,-0.009643555,0.0625,-0.072265625,-0.16308594,-0.034179688,-0.067871094,0.05908203,-0.06640625,0.09277344,0.008300781,0.08691406,0.028564453,0.036865234,0.006500244,-0.27148438,-0.025878906,-0.2890625,0.13574219,-0.04711914,-0.16601562,0.123535156,0.080078125,-0.25,0.20800781,0.15527344,-0.14453125,0.12695312,0.020385742,-0.041992188,-0.22753906,0.109375,-0.03881836,-0.06347656,0.028686523,-0.0859375,0.29492188,-0.18847656,-0.24023438,0.15234375,0.018554688,-0.19433594,-0.059814453,0.17578125,0.043701172,-0.19238281,0.22363281,0.084472656,0.14550781,0.39257812,-0.111816406,0.15332031,-0.08984375,0.1484375,-0.2890625,-0.10058594,0.0546875,-0.040527344,0.091796875,-0.35742188,-0.15917969,0.013000488,0.13671875,0.37695312,-0.23242188,-0.038330078,-0.0020446777,-0.20410156,-0.049560547,0.048828125,-0.31445312,-0.18847656,0.15136719,-0.33984375,-0.064453125,0.0703125,0.18261719,-0.091796875,-0.018798828,0.115234375,0.037353516,0.09033203,0.21484375,0.08105469,0.0008735657,-0.14257812,-0.13964844,-0.0703125,-0.06689453,0.026855469,-0.07910156,-0.22949219,0.068847656,-0.13183594,-0.15917969,0.056152344,0.328125,-0.038085938,-0.040039062,-0.09423828,-0.03515625,0.21191406,0.010498047,0.123535156,0.23535156,-0.115722656,-0.11376953,0.21484375,-0.01159668,0.038085938,0.103027344,0.099121094,0.091796875,-0.041748047,-0.22265625,-0.05444336,0.1953125,0.03466797,-0.203125,-0.06640625,-0.17382812,-0.024414062,-0.10888672,0.0072021484,-0.034179688,0.009094238,-0.16308594,-0.09375,0.20019531,0.060302734,0.04663086,0.07861328,-0.024902344,0.025390625,-0.13378906,0.08691406,0.0058898926,-0.06689453,0.11279297,-0.06298828,0.09814453,-0.03540039,-0.0058288574,-0.25585938,-0.018920898,-0.19726562,-0.115234375,-0.19335938,-0.10498047,0.016479492,-0.052734375,0.05029297,0.025512695,0.08251953,-0.13183594,-0.015319824,0.15722656,0.11230469,-0.0119018555,0.12060547,0.20898438,0.20117188,-0.03857422,0.08886719,0.041503906,0.091308594,-0.006011963,-0.11621094,-0.16796875,-0.060791016,0.047851562,-0.13476562,0.05493164,0.006591797,-0.055908203,0.07861328,-0.055419922,-0.048828125,-0.21582031,0.04272461,0.15722656,0.09863281,0.05126953,0.0008735657,-0.15527344,-0.05859375,0.16699219,-0.14746094,0.10205078,0.060058594,-0.07714844,0.30078125,-0.15820312,-0.048583984,-0.06347656,0.16894531,0.23242188,0.08496094,-0.026733398,-0.115722656
seven,0.10888672,-0.05493164,-0.020263672,0.044433594,0.2890625,-0.15039062,-0.123535156,-0.10986328,0.10546875,-0.0044555664,-0.044921875,-0.019165039,0.03540039,0.15136719,0.000289917,0.045166016,-0.0546875,-0.104003906,-0.171875,0.012084961,-0.28320312,-0.16015625,-0.19042969,-0.047851562,0.10107422,0.083984375,-0.06933594,0.095214844,0.020263672,-0.05493164,-0.114746094,-0.1171875,0.123046875,0.017578125,-0.046142578,-0.05517578,-0.046875,-0.13574219,-0.016845703,0.06542969,0.18261719,-0.045898438,-0.028076172,0.11425781,0.12011719,0.08203125,0.14648438,-0.025146484,-0.08251953,0.072753906,-0.08544922,0.11328125,-0.022460938,0.0065612793,-0.203125,0.053955078,-0.06591797,-0.115234375,0.037597656,0.018798828,-0.125,0.17480469,0.083984375,-0.16308594,-0.12402344,0.18359375,0.007659912,0.088378906,0.044433594,0.23144531,-0.072265625,0.100097656,0.12695312,0.09375,-0.12207031,-0.10498047,0.00078201294,0.02355957,0.17382812,0.10253906,0.12695312,-0.16503906,-0.100097656,-0.088378906,-0.08105469,-0.07714844,-0.1953125,-0.07763672,-0.052001953,-0.11035156,0.033203125,0.29101562,-0.21289062,-0.087402344,-0.09765625,-0.061523438,0.059570312,0.018920898,-0.03857422,0.068847656,0.08544922,0.022583008,0.049072266,0.033935547,-0.004486084,-0.16503906,0.14257812,0.021240234,-0.001121521,-0.02746582,0.033203125,-0.09033203,-0.041015625,-0.16894531,0.08251953,-0.035888672,0.076171875,0.16015625,0.15039062,0.05908203,-0.328125,0.064453125,0.0035095215,0.047851562,0.056884766,-0.12890625,0.022705078,-0.13671875,0.10546875,0.203125,0.04663086,-0.026367188,-0.015014648,-0.10546875,-0.080566406,0.025878906,-0.048095703,-0.023071289,0.010925293,0.14648438,-0.028808594,-0.056640625,0.1796875,-0.037109375,0.16308594,0.095214844,-0.014770508,0.02368164,-0.13085938,-0.14941406,0.07714844,-0.11669922,-0.15722656,0.037841797,0.00037384033,0.11279297,-0.084472656,-0.13378906,0.053222656,0.056884766,-0.118652344,0.011657715,0.3046875,0.095214844,0.05419922,0.10595703,-0.06689453,-0.017089844,-0.021362305,-0.17089844,-0.15234375,0.006378174,-0.068847656,-0.26171875,0.12695312,-0.24414062,-0.064453125,-0.029052734,0.05883789,-0.006652832,-0.08105469,-0.06982422,0.140625,0.21875,0.080566406,0.096191406,0.14453125,0.044677734,0.15625,-0.29296875,0.15234375,-0.23242188,0.17089844,-0.016845703,-0.25585938,0.025512695,0.24511719,0.13085938,-0.18066406,-0.10644531,-0.11767578,0.14648438,0.171875,0.030151367,0.024658203,-0.15722656,-0.10058594,-0.08984375,-0.055419922,-0.12988281,0.012451172,-0.061523438,-0.020019531,-0.037841797,0.078125,0.13476562,0.008483887,-0.095214844,-0.14355469,-0.06591797,0.0021514893,-0.06225586,0.02355957,0.06689453,0.12109375,-0.19140625,-0.08642578,0.1328125,-0.071777344,-0.016967773,-0.020385742,-0.091796875,0.06542969,0.29882812,-0.12158203,0.09082031,0.100097656,-0.078125,-0.0059814453,-0.06298828,-0.15820312,0.26953125,0.18066406,-0.359375,0.033447266,-0.024902344,0.16796875,0.02319336,0.08691406,-0.03173828,-0.046875,-0.008544922,-0.119140625,0.11816406,0.07128906,0.11035156,0.22070312,-0.1640625,0.019165039,-0.20703125,0.068359375,0.037841797,-0.15527344,0.115234375,0.21191406,-0.028564453,0.018432617,0.061035156,-0.110839844,0.021118164,0.24707031,0.0074768066,0.009033203,0.049560547,0.26757812,0.0005493164,-0.32617188,-0.0027313232,0.040527344,-0.16699219,0.036621094,-0.068359375,0.107421875,0.12109375,0.025024414,-0.036376953,0.0079956055,0.18652344,0.057617188,0.24804688,-0.03466797,0.01965332,-0.12988281,-0.09765625,-0.11328125,0.115234375,-0.055664062,0.0016403198,-0.17285156,-0.07080078
history,0.096191406,0.13574219,0.13574219,0.115234375,0.1953125,-0.20605469,0.049560547,-0.071777344,0.36132812,-0.03564453,0.041015625,-0.26757812,0.052001953,0.11035156,0.091796875,0.068359375,-0.08496094,-0.091796875,0.17285156,-0.19628906,-0.15039062,0.09765625,-0.15820312,-0.19921875,-0.026000977,-0.0037231445,-0.043701172,0.12890625,-0.22265625,-0.048339844,0.13671875,0.10839844,-0.1796875,0.05102539,0.11669922,0.1875,0.07324219,-0.17578125,0.12695312,0.18457031,0.09863281,-0.041992188,-0.12792969,0.15429688,0.13671875,0.21679688,-0.053466797,0.075683594,-0.056396484,-0.056396484,-0.036376953,-0.17675781,0.03125,-0.057861328,0.024658203,0.067871094,-0.092285156,-0.060791016,-0.030761719,-0.12451172,-0.040771484,0.12792969,0.13476562,-0.22558594,-0.18066406,-0.0064697266,0.03149414,0.02722168,-0.2265625,-0.22851562,0.12988281,-0.010864258,-0.024047852,-0.095703125,0.064453125,-0.03466797,0.12158203,0.20898438,0.23144531,0.020019531,-0.046875,-0.099609375,0.28320312,-0.28515625,0.0019073486,-0.203125,-0.3828125,0.1328125,0.08544922,0.107421875,0.061523438,-0.049316406,0.079589844,-0.013793945,-0.15917969,-0.13964844,0.088378906,0.13183594,0.07714844,0.21386719,-0.11425781,0.22265625,-0.18945312,-0.018554688,-0.029541016,0.006378174,0.11376953,-0.028808594,-0.064941406,0.053466797,0.03564453,0.22070312,-0.100097656,0.018920898,0.12109375,0.036865234,-0.12011719,-0.053955078,0.23632812,0.106933594,-0.119140625,-0.012451172,0.33203125,0.09716797,0.076660156,0.08935547,-0.099609375,-0.17382812,-0.16015625,0.15820312,-0.20117188,-0.3046875,-0.18261719,-0.05834961,0.09765625,0.08935547,-0.079589844,-0.07861328,-0.20019531,0.24414062,0.057861328,-0.092285156,-0.044677734,0.15625,0.001335144,-0.16894531,0.12109375,0.10546875,-0.10644531,0.06933594,-0.125,-0.061279297,-0.33398438,-0.083984375,-0.14160156,-0.14941406,-0.03955078,-0.057128906,0.003112793,-0.35351562,-0.061035156,-0.053955078,-0.022827148,-0.265625,0.09082031,0.20410156,0.15429688,-0.30664062,-0.0625,0.10449219,-0.010192871,0.0052490234,0.19335938,-0.32617188,0.2421875,-0.26367188,-0.00793457,0.045410156,0.1796875,-0.14648438,-0.05078125,0.010437012,-0.021606445,-0.008422852,-0.22363281,0.023803711,0.00090789795,0.084472656,0.103515625,0.22460938,0.22265625,0.10644531,0.06542969,0.22265625,-0.17285156,-0.005645752,-0.011291504,0.15429688,-0.31054688,-0.17089844,-0.036865234,0.087890625,0.15136719,-0.018066406,-0.064453125,-0.11279297,-0.0011901855,-0.22753906,-0.20898438,-0.0390625,-0.08691406,0.25,0.049804688,0.13476562,0.12451172,0.10498047,0.05883789,0.083984375,0.15625,0.032958984,-0.087402344,0.13964844,-0.0859375,0.008972168,-0.040771484,-0.06738281,0.20800781,0.027709961,-0.075683594,-0.11669922,0.055908203,-0.0019989014,-0.20703125,0.20214844,-0.011657715,0.030761719,-0.0041503906,0.05053711,0.08984375,-0.28320312,0.17382812,-0.29492188,0.04736328,-0.18164062,0.005279541,0.08154297,0.018066406,0.22070312,-0.107421875,-0.09375,0.052001953,-0.044921875,-0.05053711,-0.024658203,-0.09863281,-0.19433594,0.032470703,-0.003112793,-0.17578125,-0.06689453,0.14550781,0.06982422,-0.03857422,0.16210938,-0.0068359375,0.15527344,0.20800781,0.064453125,-0.17675781,-0.1953125,-0.057617188,0.095703125,0.017089844,0.20898438,0.0087890625,-0.19042969,0.019897461,-0.20214844,-0.13476562,-0.15722656,0.20117188,0.025756836,0.07324219,0.011474609,-0.17382812,-0.16992188,-0.06542969,0.18359375,-0.036621094,-0.099609375,-0.14550781,0.0071105957,-0.023925781,0.013305664,-0.08203125,-0.15332031,-0.075683594,-0.047851562,0.119628906,-0.05859375
atmosphere,0.14453125,0.3125,0.21484375,-0.29882812,-0.29882812,-0.009216309,-0.13085938,-0.28125,-0.26953125,0.037597656,-0.29101562,-0.1640625,0.40820312,-0.1953125,-0.15625,0.359375,-0.22167969,0.36523438,0.36132812,-0.15234375,0.21191406,-0.020385742,0.11279297,-0.28710938,-0.29296875,-0.19824219,-0.13671875,0.0002002716,-0.119140625,-0.020141602,-0.27148438,-0.38085938,0.17089844,0.13964844,-0.100097656,-0.10546875,-0.11376953,-0.36914062,0.08984375,0.19042969,-0.05493164,-0.40039062,-0.043701172,0.21289062,-0.088378906,-0.28125,-0.24902344,0.13476562,-0.39257812,0.15429688,0.20898438,0.23339844,-0.01940918,-0.11816406,0.31445312,-0.15136719,0.16113281,-0.044433594,-0.07714844,-0.19238281,-0.3125,-0.13378906,-0.12792969,0.13964844,-0.04272461,0.11425781,-0.032470703,0.06933594,0.13867188,0.28710938,-0.171875,0.01965332,0.22363281,-0.12988281,-0.21777344,-0.41015625,0.12597656,0.06298828,0.041503906,-0.03930664,0.31445312,-0.06298828,0.050048828,-0.25390625,-0.23632812,-0.13183594,-0.17675781,0.16113281,0.046142578,0.06933594,0.0154418945,-0.115722656,-0.119140625,0.026611328,0.050048828,0.25195312,-0.012939453,0.20117188,-0.0002822876,-0.2578125,0.050048828,0.13964844,-0.24804688,-0.004119873,-0.09082031,-0.0067443848,0.10839844,0.11621094,-0.38085938,-0.23632812,-0.18554688,0.33789062,0.15234375,-0.15625,-0.106933594,-0.20214844,0.01953125,0.107421875,-0.15722656,0.11230469,-0.18261719,-0.14550781,0.32421875,0.1640625,-0.091796875,0.014709473,-0.030883789,-0.18359375,-0.084472656,-0.19726562,-0.061035156,0.092285156,0.007080078,0.025146484,0.06225586,0.15820312,-0.05029297,-0.063964844,-0.24023438,-0.053222656,0.0015029907,0.060791016,0.09716797,-0.22363281,0.25195312,0.013000488,-0.16113281,0.26171875,-0.20800781,0.15722656,0.011230469,0.15722656,-0.12890625,0.079589844,0.076171875,-0.33007812,0.33007812,-0.10546875,-0.36132812,-0.016479492,-0.26171875,-0.0022277832,-0.08496094,0.30273438,0.20410156,0.06982422,0.010681152,0.1171875,0.13476562,0.28125,-0.2578125,-0.083496094,0.13574219,-0.04321289,-0.052001953,0.053710938,-0.15429688,0.0859375,-0.21289062,-0.115722656,-0.16015625,-0.060058594,0.30664062,0.08496094,0.1953125,-0.17480469,0.09082031,0.12890625,-0.119140625,0.031982422,-0.106933594,0.24902344,0.055419922,0.08642578,-0.104003906,-0.07421875,0.024291992,0.38867188,-0.2265625,-0.0055236816,0.099121094,0.3125,-0.35546875,-0.33203125,0.24511719,-0.45117188,0.390625,0.00970459,-0.20117188,0.014160156,0.13183594,0.13183594,0.28710938,0.140625,0.013427734,0.071777344,-0.115234375,0.23828125,-0.20117188,-0.16015625,0.20898438,-0.014465332,0.12011719,0.053466797,-0.04711914,0.17285156,0.5,-0.044433594,0.18652344,0.06298828,-0.21484375,-0.025756836,0.0546875,0.0126953125,0.22460938,-0.1875,-0.33984375,-0.08984375,0.32617188,-0.045898438,0.091796875,-0.04345703,0.1328125,-0.28710938,-0.16699219,0.095214844,-0.21386719,0.04248047,0.088378906,0.2109375,-0.07470703,0.21386719,0.033203125,0.27929688,-0.14648438,-0.23828125,0.18457031,0.04321289,-0.052246094,-0.01953125,0.17480469,-0.41015625,-0.08544922,0.24804688,-0.046875,0.26953125,0.10986328,-0.122558594,0.01977539,-0.083984375,-0.17480469,0.031982422,-0.036621094,0.3125,-0.17285156,-0.17773438,-0.19335938,-0.0390625,0.029296875,-0.375,0.008361816,-0.32617188,-0.17773438,-0.060302734,0.20117188,-0.36132812,0.05029297,-0.18847656,0.049072266,0.111816406,-0.55859375,0.16992188,-0.23535156,0.17871094,-0.096191406,0.123046875,0.19238281,-0.15820312,0.092285156,-0.13085938
mother,-0.009216309,-0.21191406,0.021606445,-0.025878906,0.13183594,0.11328125,0.025512695,-0.19335938,0.007598877,0.07861328,0.36328125,-0.29492188,-0.12597656,-0.032714844,-0.13769531,0.11621094,-0.07470703,0.107910156,-0.045898438,0.12988281,0.06225586,0.05029297,0.20996094,-0.057617188,0.071777344,-0.24511719,-0.12402344,0.1015625,0.16210938,-0.17773438,0.14257812,-0.06225586,-0.19921875,-0.005859375,-0.061035156,0.15429688,0.27929688,0.005279541,-0.030639648,0.032470703,0.10253906,-0.03930664,0.19921875,-0.12988281,0.1796875,0.03857422,-0.11279297,0.09375,-0.005004883,-0.021240234,0.014099121,0.018920898,0.053222656,-0.022094727,0.03857422,-0.1015625,-0.3359375,0.09472656,-0.019165039,0.020263672,0.24121094,0.11816406,0.15136719,0.050048828,0.15039062,0.03881836,0.044677734,0.118652344,0.046875,-0.00090026855,0.22558594,0.083496094,-0.18261719,0.19921875,-0.24804688,0.42578125,0.0625,-0.14941406,0.22558594,0.2265625,0.2265625,0.08105469,-0.11669922,-0.21484375,-0.19238281,0.15429688,-0.018066406,0.20019531,-0.0009918213,-0.047851562,-0.10888672,-0.19433594,-0.1796875,-0.1640625,0.009277344,0.020507812,0.18164062,-0.04345703,0.16210938,-0.04638672,-0.17871094,-0.2734375,0.19335938,-0.34179688,-0.17382812,-0.16894531,-0.032714844,-0.01586914,0.15332031,0.08203125,-0.022094727,0.045654297,0.10546875,-0.05883789,-0.0859375,-0.10839844,-0.20703125,-0.119628906,0.017211914,0.061523438,0.026123047,0.045654297,-0.014587402,0.003692627,-0.13476562,0.0134887695,0.06542969,-0.02355957,0.049804688,0.056640625,-0.05126953,-0.044921875,-0.099609375,-0.0004005432,0.015625,0.053466797,0.15039062,-0.1015625,0.14160156,-0.041015625,0.22949219,-0.03100586,-0.033203125,0.045166016,-0.07763672,0.328125,-0.2421875,0.2734375,-0.17285156,-0.15429688,0.453125,0.060791016,0.08935547,0.10986328,-0.038330078,0.063964844,-0.024536133,-0.1171875,0.096191406,-0.0119018555,-0.059570312,0.068359375,0.3203125,0.28125,-0.049072266,-0.06347656,0.19726562,-0.068847656,0.16601562,0.14941406,0.12451172,-0.057373047,0.060546875,-0.17773438,-0.11669922,0.04345703,0.40039062,0.25,-0.04345703,0.17871094,-0.071777344,-0.05078125,0.13671875,-0.01574707,0.0859375,0.06738281,0.00289917,0.26171875,-0.16796875,0.12011719,-0.21191406,0.043945312,0.044189453,0.09277344,0.16015625,0.3203125,-0.06201172,-0.13085938,-0.063964844,0.11669922,-0.31640625,-0.171875,-0.084472656,-0.11328125,0.20410156,-0.08105469,-0.005279541,0.0022888184,0.17382812,-0.37890625,0.0060424805,-0.036621094,-0.07324219,-0.14257812,0.014709473,0.072265625,0.025512695,0.17871094,-0.1640625,-0.067871094,0.09667969,0.122558594,0.29882812,-0.075683594,-0.011779785,-0.375,0.14941406,-0.10595703,-0.09423828,-0.08886719,0.05444336,0.095703125,-0.23730469,0.041748047,0.03491211,-0.06591797,-0.110839844,-0.20996094,-0.13183594,0.092285156,-0.078125,-0.1796875,-0.16796875,-0.15332031,0.07714844,0.44335938,-0.06347656,0.021850586,0.06591797,-0.14257812,0.23925781,0.068847656,0.17089844,-0.03491211,0.12451172,-0.15234375,-0.14941406,-0.028808594,-0.17675781,0.068359375,0.053222656,-0.057128906,-0.07470703,-0.103515625,0.072265625,0.23535156,-0.09472656,-0.07519531,-0.18164062,0.07763672,0.08496094,0.059570312,0.03540039,0.15039062,0.15527344,-0.10644531,0.047851562,0.08886719,0.020996094,-0.16015625,0.19628906,-0.20214844,0.06542969,0.10498047,-0.18652344,0.099609375,-0.111816406,0.21582031,-0.119140625,0.51953125,-0.16699219,-0.083496094,-0.18164062,-0.21875,-0.05908203,0.03930664,-0.0859375,-0.087402344,0.14550781,-0.0077209473
cat,0.012329102,0.20410156,-0.28515625,0.21679688,0.11816406,0.08300781,0.049804688,-0.009521484,0.22070312,-0.12597656,0.080566406,-0.5859375,-0.0044555664,-0.296875,-0.013122559,-0.083496094,0.05053711,0.15136719,-0.44921875,-0.013549805,0.21484375,-0.14746094,0.22460938,-0.125,-0.09716797,0.24902344,-0.2890625,0.36523438,0.41210938,-0.0859375,-0.07861328,-0.19726562,-0.09082031,-0.14160156,-0.10253906,0.13085938,-0.0034637451,0.072265625,0.044189453,0.34570312,0.07470703,-0.11230469,0.06738281,0.11230469,0.01977539,-0.123535156,0.20996094,-0.072265625,-0.027832031,0.055419922,-0.33398438,0.08544922,0.34375,0.13964844,0.049316406,-0.13476562,0.16308594,-0.37304688,0.39648438,0.106933594,0.22167969,0.21289062,-0.08984375,0.20703125,0.08935547,-0.08251953,0.059570312,0.10205078,-0.19238281,-0.09082031,0.4921875,0.03955078,-0.07080078,-0.0019989014,-0.23046875,0.25585938,0.08984375,-0.10644531,0.0010528564,-0.05883789,0.05102539,-0.029174805,0.19335938,-0.14160156,-0.33398438,0.08154297,-0.27539062,0.10058594,-0.10449219,-0.123535156,-0.140625,0.03491211,-0.11767578,-0.1796875,-0.21484375,-0.23828125,0.084472656,-0.07519531,-0.25976562,-0.21289062,-0.22363281,-0.09716797,0.115722656,0.15429688,0.07373047,-0.27539062,0.14257812,-0.020141602,0.100097656,-0.19042969,-0.09375,0.14160156,0.17089844,0.3125,-0.16699219,-0.08691406,-0.050048828,-0.24902344,-0.20800781,-0.09423828,-0.122558594,-0.09472656,-0.390625,-0.06640625,-0.31640625,0.10986328,-0.0015640259,0.04345703,0.15625,-0.18945312,-0.03491211,0.033935547,-0.14453125,0.016113281,-0.14160156,-0.023925781,0.015014648,0.075683594,0.107421875,0.12695312,0.106933594,-0.01184082,-0.24023438,0.029174805,0.16210938,0.19921875,-0.28125,0.16699219,-0.11621094,-0.25585938,0.38671875,-0.06640625,-0.4609375,-0.061767578,-0.14453125,-0.11621094,0.056884766,0.035888672,-0.106933594,0.18847656,-0.16699219,-0.017944336,0.10986328,-0.123535156,-0.16308594,-0.14453125,0.12890625,0.115234375,0.13671875,0.056884766,-0.08105469,-0.061523438,-0.06689453,0.27929688,-0.19628906,0.072265625,0.123046875,-0.20996094,-0.22070312,0.21386719,-0.1484375,-0.059326172,0.052246094,0.064453125,-0.026367188,0.13183594,0.19433594,0.27148438,0.18652344,0.140625,0.06542969,-0.14453125,0.05029297,0.088378906,0.122558594,0.26757812,0.053466797,-0.32226562,-0.20703125,0.18164062,0.044189453,-0.22167969,-0.13769531,-0.041748047,-0.0028686523,0.040771484,0.072753906,-0.08300781,0.083984375,-0.3359375,-0.40039062,0.017578125,-0.18652344,-0.048095703,-0.19140625,0.10107422,0.09277344,-0.30664062,-0.19921875,-0.016845703,0.12207031,0.14648438,-0.12890625,-0.23535156,-0.053710938,-0.06640625,0.068847656,-0.036376953,0.2109375,-0.060058594,0.19335938,0.051513672,-0.053222656,0.028930664,-0.27539062,0.084472656,0.328125,0.018188477,0.014953613,0.04711914,0.37695312,-0.21875,-0.033935547,0.011169434,0.36914062,0.021606445,0.03466797,0.072753906,0.16015625,-0.16503906,-0.296875,0.15039062,-0.29101562,0.13964844,0.004486084,0.171875,-0.21972656,0.09326172,-0.19042969,0.015991211,-0.092285156,0.15722656,-0.14160156,-0.053466797,0.036132812,0.23632812,-0.15136719,-0.0068969727,-0.27148438,-0.07128906,-0.16503906,0.18457031,-0.083984375,0.18554688,0.11669922,0.02758789,-0.047607422,0.17871094,0.06542969,-0.03540039,0.22949219,0.026977539,-0.09765625,0.26953125,0.083496094,-0.13085938,-0.10107422,-0.007385254,0.07128906,0.14941406,-0.20605469,0.18066406,-0.15820312,0.059326172,0.28710938,-0.04663086,0.15136719,0.4921875,-0.27539062,0.056152344
racism,0.02709961,-0.104003906,0.3359375,-0.13085938,-0.096191406,0.03125,-0.052734375,0.11328125,0.36328125,-0.10546875,-0.07373047,0.19238281,0.0703125,0.119140625,0.20117188,0.119140625,0.087890625,0.22558594,0.0033721924,-0.15429688,-0.025634766,0.13476562,0.47851562,-0.34570312,-0.19335938,-0.047851562,-0.0126953125,-0.021240234,0.33398438,0.28125,-0.09814453,0.036132812,-0.1171875,-0.13574219,0.033447266,0.26367188,0.26757812,0.037597656,0.106933594,-0.13769531,0.24023438,-0.17675781,0.013305664,-0.06738281,-0.27148438,0.009643555,-0.010437012,-0.1640625,-0.19140625,0.096191406,0.099609375,-0.063964844,-0.20214844,-0.40625,0.060302734,-0.15039062,-0.17871094,-0.09326172,-0.07910156,-0.18164062,-0.010559082,0.40039062,0.12988281,-0.17480469,-0.049072266,0.011047363,-0.32617188,0.13964844,0.16015625,0.26757812,-0.059326172,0.16699219,-0.110839844,0.19042969,0.03857422,-0.109375,0.28320312,0.036132812,0.18457031,0.047607422,0.15527344,0.15917969,-0.10253906,-0.119140625,0.06542969,-0.17382812,-0.37695312,0.20898438,0.019165039,0.05078125,-0.35546875,0.053955078,-0.51171875,0.052246094,-0.24902344,0.14257812,0.34375,-0.1328125,0.12109375,0.07421875,-0.013977051,0.07861328,0.35546875,-0.051757812,-0.14648438,-0.045654297,0.06933594,0.17578125,-0.07714844,-0.44140625,-0.56640625,-0.022338867,-0.13964844,0.104003906,-0.118652344,-0.11816406,0.103027344,0.1796875,0.18652344,0.25,-0.3671875,0.12792969,0.005584717,0.19824219,0.0018386841,-0.09667969,-0.083984375,0.27734375,0.060302734,-0.36328125,-0.02746582,-0.35546875,-0.38476562,-0.059814453,0.068847656,0.20117188,0.1796875,0.20117188,0.072265625,0.037353516,0.119140625,-0.119628906,0.12109375,0.032714844,-0.083984375,-0.20703125,0.05810547,0.16308594,0.27539062,-0.06689453,0.375,0.07080078,0.14160156,-0.0061035156,-0.011291504,0.1328125,-0.31054688,-0.51953125,0.18554688,-0.50390625,0.033203125,-0.20898438,-0.12890625,-0.11035156,0.15917969,-0.19140625,-0.0025787354,0.057373047,-0.15136719,0.29882812,0.0046691895,0.19042969,0.06298828,-0.07861328,0.09423828,-0.021606445,-0.23632812,-0.265625,0.08154297,0.15429688,-0.11328125,-0.14550781,-0.27929688,0.18457031,-0.0024871826,0.18847656,-0.122558594,0.23828125,-0.13769531,0.16796875,0.09716797,-0.020385742,0.060546875,0.16601562,-0.26367188,0.16210938,0.11767578,-0.019042969,-0.05908203,0.15820312,-0.033203125,0.0039367676,-0.063964844,-0.11816406,0.07421875,-0.00793457,0.32226562,0.064941406,0.09326172,0.056396484,-0.15722656,-0.12060547,0.08105469,-0.064941406,-0.13964844,0.09033203,-0.1484375,-0.1015625,-0.06933594,-0.35742188,-0.34179688,0.061767578,0.14160156,0.1875,-0.19042969,0.011352539,0.43945312,0.036376953,0.17578125,0.0029907227,-0.12109375,0.08642578,-0.1171875,0.20605469,0.11376953,-0.51953125,0.38867188,0.08105469,0.62890625,-0.07128906,0.515625,-0.3984375,-0.15039062,-0.06689453,-0.265625,0.36132812,0.021240234,-0.14355469,-0.15039062,-0.06201172,0.23632812,0.18652344,-0.002746582,-0.00063323975,0.24902344,0.009460449,0.21679688,-0.15722656,0.20703125,0.26953125,0.061035156,-0.014221191,-0.05078125,0.30273438,0.140625,-0.20800781,0.26757812,0.01977539,-0.2109375,-0.13183594,0.07519531,0.37890625,-0.12695312,0.23828125,0.08251953,0.025024414,0.09716797,0.115722656,-0.43164062,0.09082031,0.064453125,-0.33203125,-0.052734375,0.099609375,-0.23925781,-0.26367188,0.057128906,0.17675781,-0.09814453,-0.031982422,-0.06933594,0.036376953,-0.24121094,0.3984375,-0.31054688,0.14648438,0.17871094,-0.076660156,0.08203125,-0.10058594
science,0.009033203,0.12158203,0.3984375,0.21386719,-0.016723633,0.063964844,0.3125,-0.23535156,-0.100097656,-0.09326172,0.20507812,-0.032226562,-0.21191406,0.0095825195,-0.27734375,0.096191406,-0.1875,-0.040527344,0.2265625,-0.23632812,-0.048583984,0.032958984,-0.080566406,0.122558594,0.05859375,-0.091308594,-0.026855469,0.025878906,-0.11376953,-0.21972656,-0.037841797,-0.15722656,-0.059814453,-0.016357422,0.11425781,-0.15234375,-0.010864258,0.29296875,0.22265625,-0.002456665,-0.16308594,-0.11669922,-0.20800781,0.31835938,-0.087402344,0.13378906,0.15429688,0.11816406,-0.07470703,0.09326172,-0.32421875,0.012390137,-0.072265625,-0.10986328,-0.071777344,0.16113281,0.055419922,-0.3984375,-0.049804688,-0.25195312,-0.052490234,-0.057861328,0.16699219,-0.26953125,-0.043945312,-0.14257812,0.036621094,0.34765625,-0.10888672,-0.12011719,-0.19335938,-0.21972656,0.16015625,-0.06542969,-0.22070312,0.1484375,0.23144531,0.11669922,-0.15429688,0.041748047,-0.088378906,0.21972656,0.080566406,-0.10888672,0.07080078,-0.11279297,0.006286621,0.37890625,-0.21582031,0.11035156,0.27148438,-0.29296875,-0.12988281,-0.10595703,0.15820312,0.21484375,0.27929688,0.041503906,0.22949219,-0.020385742,0.023071289,0.123535156,-0.14355469,-0.1328125,0.03930664,0.013244629,-0.01965332,-0.10107422,0.27539062,-0.13867188,-0.10986328,0.06982422,0.14648438,0.203125,0.04736328,0.18066406,-0.10546875,0.20410156,0.22460938,0.099121094,0.08251953,-0.016723633,-0.096191406,0.1171875,-0.29101562,-0.032470703,-0.059814453,-0.018188477,-0.09472656,0.20800781,-0.04663086,-0.30078125,-0.059570312,-0.18554688,-0.064941406,0.22265625,0.21191406,0.018676758,-0.140625,-0.041503906,0.15039062,-0.12158203,-0.10498047,-0.1875,-0.29101562,0.0078125,0.25585938,-0.08642578,0.17578125,-0.032714844,0.19628906,-0.16796875,-0.1796875,0.05834961,-0.2578125,-0.23925781,0.15234375,-0.14355469,-0.012268066,-0.23925781,-0.24511719,-0.17675781,-0.18261719,0.3828125,0.34765625,0.072265625,0.14941406,-0.16015625,0.024902344,-0.12207031,0.13476562,0.14941406,-0.084472656,0.10107422,0.13867188,0.01940918,-0.11328125,-0.08642578,-0.07470703,0.02758789,-0.13183594,-0.036621094,0.064453125,-0.22167969,0.19726562,-0.09375,0.17871094,-0.016479492,0.057617188,0.096191406,0.046142578,0.0079956055,0.06982422,0.055664062,-0.15820312,0.20214844,0.25,-0.118652344,0.055419922,0.005706787,-0.33984375,-0.099609375,0.020263672,-0.047851562,-0.28515625,-0.28320312,0.24511719,-0.14648438,-0.32226562,-0.12158203,-0.12988281,0.11328125,0.09716797,0.0095825195,0.045410156,0.24121094,0.040771484,0.087890625,0.33203125,-0.021484375,-0.015075684,-0.17773438,0.26953125,0.10546875,0.13867188,0.07470703,0.13964844,0.014465332,-0.064453125,0.16113281,0.22558594,0.09472656,0.07714844,-0.15039062,0.21679688,0.044433594,0.16992188,0.12597656,0.04321289,-0.08642578,0.30859375,0.1015625,-0.0065612793,0.08496094,-0.17382812,-0.05834961,0.087402344,0.0073242188,-0.22070312,0.13183594,-0.27734375,-0.33203125,0.11279297,0.055908203,0.17871094,-0.22851562,0.033691406,0.026733398,-0.18554688,0.033203125,0.05053711,-0.109375,-0.26367188,0.07421875,0.076171875,0.26171875,0.20117188,-0.18066406,-0.10449219,-0.030761719,0.09033203,-0.15234375,-0.11816406,-0.10253906,-0.0703125,-0.13476562,-0.087890625,-0.23144531,0.23828125,0.057617188,0.17382812,0.064453125,0.1953125,0.18945312,-0.057373047,-0.07910156,0.15332031,-0.17089844,0.11035156,0.34570312,-0.23144531,0.03955078,-0.3671875,0.033447266,0.060546875,-0.019897461,0.18164062,-0.171875,0.2890625,0.07470703
championship,-0.21777344,-0.14746094,0.06933594,-0.016479492,0.3203125,-0.34765625,-0.11621094,-0.125,0.110839844,0.43359375,-0.20898438,0.16113281,-0.059326172,0.041748047,0.045410156,0.16796875,0.31835938,0.28710938,0.35742188,-0.111816406,0.09423828,0.43554688,0.15917969,-0.064941406,0.016845703,-0.23339844,-0.2578125,0.14746094,0.06298828,-0.08544922,-0.26953125,0.114746094,0.31445312,0.001373291,0.100097656,-0.010498047,0.20019531,0.046875,0.028930664,0.41992188,0.061279297,-0.15429688,0.234375,0.1640625,0.00491333,-0.24023438,0.28125,0.21289062,0.24023438,0.20605469,0.050048828,0.31835938,-0.25390625,-0.12695312,-0.24902344,-0.2109375,0.17089844,-0.35546875,0.08544922,-0.27929688,0.006134033,-0.041503906,0.044433594,-0.21386719,-0.20800781,0.21679688,0.15625,0.10205078,0.21972656,0.0390625,0.12890625,-0.28125,-0.039794922,-0.0077819824,-0.15234375,-0.15820312,0.005645752,-0.41796875,0.15917969,-0.359375,0.16113281,-0.004180908,-0.111328125,0.14550781,-0.007873535,-0.14746094,-0.050048828,0.171875,0.27539062,0.38476562,-0.023925781,0.0065612793,-0.18164062,-0.01953125,-0.20117188,-0.19140625,0.017944336,-0.10986328,-0.053710938,0.087402344,-0.19921875,0.006011963,-0.0134887695,-0.04711914,0.07128906,0.14453125,-0.100097656,-0.052734375,-0.099609375,0.07324219,0.052001953,0.08984375,-0.122558594,0.11279297,0.21484375,0.30273438,0.12695312,0.328125,-0.103027344,-0.36328125,-0.15527344,0.063964844,0.0063171387,-0.015991211,-0.15429688,-0.17089844,-0.104003906,-0.045410156,-0.31054688,0.14941406,0.020385742,-0.28320312,0.08642578,0.036865234,0.0004081726,0.0019378662,-0.026977539,0.51171875,-0.27539062,0.47070312,-0.23046875,-0.10449219,0.37890625,-0.20703125,0.014831543,0.5390625,-0.050048828,-0.08203125,-0.17089844,-0.19238281,-0.041503906,0.34179688,-0.20214844,-0.07519531,0.020996094,-0.024902344,0.21289062,-0.14550781,-0.3515625,-0.080566406,-0.0027313232,0.072753906,0.22167969,0.022216797,-0.19042969,-0.104003906,0.07910156,-0.14453125,-0.15820312,0.42578125,0.115722656,-0.18945312,0.16796875,-0.32421875,-0.34570312,0.044189453,0.27148438,-0.111816406,-0.08203125,-0.35546875,-0.024291992,-0.122558594,0.0024871826,-0.032714844,-0.25195312,0.140625,0.05419922,0.10058594,0.17285156,0.064453125,0.28710938,-0.07324219,-0.17382812,-0.11767578,-0.18164062,-0.25585938,0.13671875,0.3203125,-0.045898438,0.061035156,-0.0062561035,-0.019897461,-0.10986328,0.1640625,-0.21289062,-0.20703125,0.1171875,-0.234375,0.17089844,-0.19726562,-0.15136719,-0.18847656,0.3125,-0.021484375,-0.10986328,-0.019042969,0.044921875,-0.25195312,-0.15039062,-0.14746094,-0.22070312,-0.0019302368,0.18457031,-0.013061523,0.14355469,-0.20507812,-0.20800781,-0.018310547,-0.0625,0.09863281,-0.23535156,-0.0154418945,-0.34765625,0.016479492,0.049316406,-0.20605469,0.029418945,-0.09033203,0.21875,-0.22070312,0.06591797,-0.10839844,-0.0071411133,-0.20214844,-0.25390625,0.122558594,0.07763672,-0.18261719,0.0010681152,-0.25195312,0.18457031,-0.19726562,0.06298828,-0.20117188,-0.25585938,0.03466797,-0.010009766,-0.26757812,-0.36523438,0.21972656,0.055664062,0.16601562,0.19628906,0.109375,0.34375,0.12695312,0.12988281,-0.056396484,-0.026000977,-0.011169434,0.0052490234,0.15625,-0.25585938,0.17871094,-0.036621094,-0.067871094,-0.033935547,-0.061523438,-0.34960938,-0.19140625,0.122558594,-0.11669922,0.11376953,-0.047607422,-0.25,-0.2421875,-0.14746094,0.16992188,-0.22265625,-0.35742188,-0.265625,-0.12695312,-0.052490234,-0.38867188,-0.017944336,0.20214844,-0.13574219,-0.14355469,-0.016357422,-0.056152344
animal,0.008117676,0.20507812,-0.16992188,0.11816406,-0.115722656,0.029907227,0.17675781,-0.038330078,-0.15039062,-0.08251953,0.08105469,-0.48046875,-0.12695312,-0.2109375,-0.31054688,-0.13671875,-0.24023438,0.21191406,-0.10595703,-0.03930664,0.13085938,-0.17089844,0.15136719,-0.03515625,-0.17285156,0.018188477,-0.20117188,0.22558594,0.33789062,-0.18164062,-0.18457031,-0.10546875,-0.23046875,-0.1640625,-0.3046875,0.15625,-0.025878906,0.064941406,0.072753906,0.32617188,0.049560547,0.10253906,-0.22851562,0.3046875,-0.37890625,-0.2578125,0.25585938,0.36132812,0.115234375,0.12597656,-0.015319824,-0.13574219,0.10986328,0.045166016,0.0014648438,0.026367188,0.21484375,-0.13183594,0.328125,0.31640625,0.12890625,0.06591797,0.036376953,-0.1640625,-0.053466797,-0.43945312,0.1875,0.23144531,-0.22070312,-0.06689453,0.088378906,0.018432617,-0.125,-0.07324219,-0.011413574,-0.075683594,0.05102539,-0.15332031,0.22363281,-0.25195312,0.036376953,-0.016845703,0.12792969,-0.296875,-0.052246094,0.0058898926,-0.24414062,0.22558594,-0.22265625,-0.114746094,0.029785156,0.18066406,-0.0390625,-0.09765625,-0.0546875,-0.19921875,0.076660156,-0.011779785,0.05029297,-0.25585938,0.050048828,0.033203125,0.051757812,0.092285156,0.27929688,-0.123046875,-0.016113281,-0.17089844,0.048095703,0.0012054443,-0.29101562,-0.0060424805,0.13085938,0.1640625,-0.140625,-0.07128906,-0.21484375,-0.18261719,0.080566406,-0.092285156,0.0057678223,-0.26757812,-0.390625,0.024047852,-0.06347656,0.0012664795,0.17285156,-0.1328125,0.20800781,-0.072265625,-0.2265625,-0.13574219,-0.34570312,0.24316406,-0.100097656,-0.09033203,0.10253906,0.006164551,0.06640625,-0.025146484,0.087402344,0.0020446777,-0.16992188,0.20800781,0.103027344,0.10449219,0.030883789,0.13964844,-0.16210938,-0.1484375,0.34765625,0.060791016,-0.42773438,0.0033569336,0.07128906,-0.087402344,0.020629883,-0.22949219,0.17089844,0.060058594,-0.1328125,-0.026245117,0.10498047,0.1484375,-0.02355957,-0.07861328,-0.234375,-0.07080078,-0.012390137,-0.06542969,0.08691406,-0.10986328,-0.0015792847,0.19921875,-0.09375,-0.1015625,-0.06542969,0.040527344,-0.27734375,-0.072265625,-0.34765625,-0.029296875,0.043945312,0.10839844,0.088378906,-0.04321289,0.0036468506,0.19726562,0.024780273,0.27734375,-0.15820312,-0.095214844,-0.11328125,-0.041015625,0.040771484,-0.009216309,0.061767578,-0.25585938,-0.13769531,0.09375,0.15527344,-0.29101562,-0.16015625,0.0003299713,-0.18359375,-0.028442383,0.037841797,0.04638672,0.25976562,-0.24414062,-0.53125,-0.020996094,0.03540039,-0.19921875,-0.06933594,0.07470703,0.32226562,-0.15820312,0.16601562,-0.03564453,0.19335938,-0.07324219,-0.012634277,-0.19238281,0.20019531,-0.123535156,0.23925781,0.02709961,0.3203125,0.106933594,0.33984375,0.14746094,-0.16308594,0.15234375,-0.26953125,-0.040527344,0.37304688,0.06640625,0.063964844,-0.092285156,0.41210938,-0.24121094,0.036621094,-0.19628906,0.044677734,0.02319336,0.053710938,-0.019897461,-0.107910156,-0.13183594,-0.26171875,0.19042969,-0.30273438,-0.20898438,0.06542969,0.044921875,-0.091796875,0.032470703,-0.32421875,0.038330078,-0.30859375,-0.037353516,0.045410156,0.011474609,0.17089844,-0.08544922,-0.087890625,-0.017333984,-0.22167969,-0.010253906,0.032470703,0.00045204163,-0.14550781,0.096191406,0.09814453,-0.17773438,-0.068359375,0.008728027,0.061035156,0.15917969,0.14648438,-0.14941406,0.20410156,-0.04711914,-0.22167969,0.041015625,-0.06298828,-0.017822266,0.44726562,0.3828125,-0.27148438,0.11767578,-0.21972656,0.28515625,-0.011291504,0.24121094,0.12695312,0.36914062,-0.10986328,0.1875
Wednesday,0.016723633,0.06933594,0.09277344,-0.23242188,-0.037597656,0.032226562,0.18652344,-0.08984375,0.06982422,0.05908203,-0.022583008,-0.12060547,0.24414062,-0.01361084,-0.13183594,-0.11279297,-0.04345703,0.024780273,0.13769531,0.19140625,0.03491211,0.12011719,-0.12060547,-0.11816406,-0.04663086,-0.05810547,0.15820312,0.036621094,0.018432617,0.19628906,0.078125,-0.080566406,-0.107421875,-0.23144531,-0.015563965,0.14453125,-0.029785156,0.040039062,-0.100097656,-0.052978516,-0.044921875,-0.14355469,0.21777344,0.0034637451,-0.012145996,0.107421875,0.09277344,0.11035156,-0.006652832,0.14453125,0.07128906,0.15136719,0.03857422,0.15332031,-0.050048828,0.044921875,-0.115234375,-0.18847656,0.034423828,-0.022705078,-0.25,-0.03857422,-0.18164062,0.008911133,0.072753906,0.05810547,0.099121094,0.11816406,0.1328125,0.1328125,0.061523438,0.03149414,0.021850586,0.16113281,0.10107422,0.17089844,0.051757812,0.07324219,0.17871094,0.034423828,0.045166016,-0.08251953,0.033447266,0.053955078,0.19335938,-0.12890625,-0.15917969,-0.107421875,-0.10595703,-0.033447266,0.049072266,0.049316406,0.023925781,-0.092285156,-0.13671875,-0.1171875,-0.08105469,0.17773438,-0.16015625,-0.24121094,0.19824219,-0.12988281,-0.0033111572,0.009460449,-0.072265625,-0.099609375,0.1640625,-0.09033203,0.020751953,-0.24316406,0.17675781,0.040039062,0.05908203,-0.28320312,-0.029785156,-0.017578125,0.13183594,0.03564453,0.14941406,0.18066406,-0.08886719,-0.10595703,-0.07861328,-0.0067443848,0.036621094,-0.099609375,0.049316406,-0.026611328,0.022827148,-0.018920898,0.049560547,-0.026367188,-0.030761719,-0.09863281,-0.15332031,-0.041259766,0.046142578,0.014343262,-0.1171875,0.14648438,-0.036376953,-0.0030975342,0.13867188,-0.11425781,-0.20214844,0.01586914,-0.017944336,-0.24902344,0.013305664,-0.039794922,-0.076660156,0.021850586,-0.048095703,-0.13476562,0.16210938,-0.14648438,0.13964844,-0.12988281,-0.051757812,0.17089844,0.0703125,-0.08251953,0.07910156,0.118652344,0.09277344,0.09033203,0.072265625,-0.005065918,0.03955078,-0.111816406,0.11230469,-0.026855469,-0.08300781,-0.017578125,-0.07714844,-0.31445312,0.15527344,-0.008972168,-0.05419922,-0.10644531,-0.24707031,0.03125,-0.068359375,0.024169922,0.096191406,0.0027008057,0.018310547,-0.044921875,0.21875,-0.08203125,0.17773438,0.041015625,-0.040039062,0.08691406,-0.23925781,0.0017852783,-0.021240234,-0.05029297,-0.035888672,-0.1171875,0.020141602,-0.17480469,0.08203125,-0.0049743652,0.22558594,-0.020263672,0.12597656,0.22753906,0.008056641,-0.17089844,-0.076171875,-0.20214844,0.036865234,-0.068359375,-0.15527344,0.017944336,0.012329102,0.09423828,-0.26171875,-0.0033721924,0.100097656,0.13964844,0.017333984,-0.083984375,-0.028198242,-0.26367188,-0.103515625,0.20703125,-0.01574707,0.09082031,0.18261719,0.0008430481,-0.15429688,0.12890625,0.103027344,-0.125,-0.010925293,-0.061767578,0.045166016,-0.07373047,0.072265625,0.06591797,-0.15527344,-0.033203125,-0.080078125,0.025146484,0.16015625,0.050048828,0.20117188,0.016967773,-0.12988281,0.048583984,-0.11279297,-0.041748047,0.10839844,0.110839844,0.16210938,0.0010986328,0.14550781,-0.010864258,0.11816406,-0.009887695,0.14257812,0.14648438,0.07910156,0.17382812,0.04272461,0.14453125,0.057128906,0.044921875,-0.125,0.12988281,0.0012664795,-0.052001953,0.15429688,-0.049804688,-0.080078125,0.0037841797,-0.0625,-0.05419922,-0.087890625,0.041748047,-0.06225586,0.28515625,0.056884766,-0.30273438,-0.07861328,0.10595703,0.045654297,0.06591797,0.08105469,-0.19726562,-0.030395508,-0.010803223,0.076660156,-0.15332031,-0.14550781,-0.020629883,0.14941406,-0.12792969
shore,-0.024658203,0.13378906,-0.31640625,-0.118652344,-0.10888672,-0.048828125,-0.546875,-0.057373047,0.28515625,0.13085938,0.20019531,-0.18261719,-0.088378906,0.203125,-0.08154297,0.13574219,-0.009460449,0.048095703,0.07421875,0.22558594,0.12451172,0.15234375,0.09277344,0.019042969,0.34765625,-0.12402344,-0.15722656,0.34179688,0.25585938,-0.0390625,-0.09667969,0.26367188,-0.1015625,-0.028564453,-0.09082031,-0.1328125,0.104003906,0.11279297,0.1796875,0.099121094,-0.15917969,0.006591797,-0.053222656,-0.10986328,-0.2734375,-0.06933594,-0.13769531,-0.16503906,0.15429688,-0.025268555,0.19140625,0.018066406,0.5,-0.000957489,-0.032470703,0.16308594,-0.10205078,0.005554199,0.0020599365,-0.29882812,-0.05444336,-0.30664062,0.05053711,-0.34375,0.328125,-0.12695312,-0.20605469,0.07080078,-0.12988281,-0.05444336,-0.080566406,-0.008544922,-0.08642578,0.030761719,0.15527344,0.012939453,-0.265625,0.022216797,0.140625,0.0138549805,0.390625,-0.017700195,0.08203125,0.002166748,0.171875,0.25390625,0.10595703,-0.060791016,0.032958984,0.107421875,0.14453125,0.3125,-0.115234375,0.24511719,0.13378906,-0.056640625,0.22753906,-0.010498047,-0.123046875,-0.04321289,0.0010986328,0.00039863586,0.24023438,0.14257812,-0.21484375,-0.030151367,0.107910156,-0.067871094,0.41992188,0.048095703,-0.11425781,0.008911133,0.24511719,-0.14453125,0.12792969,0.068847656,0.09814453,0.3671875,-0.14746094,0.17773438,-0.020507812,0.091308594,0.21289062,0.064453125,0.001953125,-0.42382812,0.04272461,0.0058288574,0.015991211,0.13085938,0.0703125,-0.037109375,-0.006500244,0.038330078,-0.12597656,-0.0057678223,0.29492188,-0.25585938,0.024536133,0.078125,-0.27148438,-0.0625,0.056884766,0.4375,0.091308594,0.07519531,-0.14941406,0.071777344,0.18554688,-0.008972168,0.19726562,-0.09814453,-0.021972656,0.04663086,0.011962891,0.017700195,0.17382812,-0.001663208,-0.026367188,0.31835938,0.40429688,0.014831543,-0.13476562,-0.17773438,0.087890625,0.050048828,-0.17382812,-0.25,0.19140625,0.0029907227,-0.31640625,0.053466797,0.19726562,0.059326172,0.0016021729,-0.22753906,0.38671875,0.24316406,-0.06591797,-0.20605469,-0.016601562,-0.265625,-0.111328125,-0.041992188,0.025146484,-0.234375,0.14257812,0.018920898,0.31445312,-0.037841797,-0.0703125,-0.17382812,0.033691406,-0.09667969,-0.31835938,0.25,-0.119628906,0.2578125,-0.08935547,-0.036376953,-0.15429688,0.037353516,-0.052978516,-0.3203125,0.08251953,0.107910156,0.16894531,0.032958984,-0.12695312,-0.18554688,-0.15722656,-0.08496094,-0.3125,0.18359375,-0.07714844,-0.20996094,0.33984375,0.016479492,-0.02355957,-0.00592041,0.0546875,0.25195312,0.15917969,-0.23730469,-0.022827148,-0.019165039,-0.13574219,0.25976562,0.21972656,0.16015625,0.041992188,-0.014587402,0.10546875,-0.234375,0.083984375,0.024169922,-0.14453125,-0.21582031,-0.091796875,0.010681152,0.07470703,-0.018554688,-0.12060547,-0.061279297,0.076660156,-0.1328125,0.17382812,-0.11669922,-0.087402344,0.076171875,-0.20117188,-0.07714844,-0.08935547,0.23925781,0.18847656,-0.17773438,0.046875,0.06689453,-0.021484375,-0.14160156,0.14160156,0.07910156,-0.265625,-0.100097656,0.37109375,0.06347656,-0.33984375,-0.19824219,0.039794922,-0.32421875,-0.036621094,0.13671875,0.08886719,-0.037597656,0.064941406,0.2421875,-0.1171875,-0.17089844,-0.24609375,0.049072266,-0.106933594,-0.17773438,0.17480469,0.14257812,-0.06933594,0.029418945,-0.29882812,0.17382812,0.20898438,0.15136719,-0.17382812,0.10205078,-0.20703125,0.013122559,-0.10205078,0.17089844,-0.16601562,-0.15136719,0.23144531,-0.38867188
landscape,0.10595703,0.24609375,-0.13085938,-0.14550781,-0.078125,-0.22363281,-0.100097656,-0.1328125,-0.099121094,-0.13964844,0.15527344,-0.33203125,-0.28125,-0.0625,-0.06738281,0.051513672,-0.13671875,0.25195312,0.31445312,-0.114746094,-0.26757812,0.1171875,-0.08105469,0.026245117,-0.15039062,0.010925293,-0.16992188,0.010925293,0.12890625,-0.095214844,-0.052490234,0.056884766,-0.115234375,0.08203125,0.034179688,-0.0064086914,-0.09814453,-0.14550781,0.27539062,0.055664062,-0.06933594,-0.15039062,0.19628906,0.203125,0.09375,-0.0072021484,0.03173828,-0.07763672,0.11279297,-0.030029297,-0.08496094,0.0010299683,-0.05078125,-0.10888672,-0.032958984,0.13769531,0.1796875,-0.16503906,0.09033203,-0.08251953,-0.24511719,-0.007873535,0.07128906,-0.14355469,-0.22949219,0.025146484,0.16015625,0.24804688,-0.12890625,-0.06542969,-0.20800781,-0.0020446777,-0.007385254,-0.033935547,-0.118652344,-0.16699219,0.080566406,0.13476562,0.091308594,-0.104003906,0.203125,0.022094727,0.037597656,-0.046875,0.09765625,0.060058594,-0.20996094,-0.08154297,0.28515625,0.19726562,-0.072753906,-0.23632812,0.014404297,0.030273438,0.0050354004,0.15722656,-0.044921875,-0.17578125,0.23046875,-0.265625,-0.15820312,0.18066406,-0.09667969,0.16699219,-0.1484375,-0.15039062,-0.02319336,0.025634766,-0.30273438,-0.09423828,-0.10888672,0.005706787,0.072753906,-0.021362305,0.49609375,-0.21582031,0.13085938,-0.27929688,0.05908203,0.20800781,-0.14160156,-0.07519531,-0.047851562,0.17871094,0.12695312,0.14355469,-0.3671875,0.0859375,0.036132812,0.11230469,-0.029663086,-0.037353516,-0.05444336,0.02722168,0.16601562,0.27734375,0.032714844,0.041992188,-0.006866455,-0.15527344,-0.030639648,-0.024047852,0.022216797,0.35546875,0.28125,-0.076660156,0.12890625,0.171875,-0.453125,0.0390625,-0.17285156,-0.0703125,-0.013122559,-0.10058594,-0.14355469,-0.1640625,0.06933594,-0.296875,-0.095214844,-0.09375,-0.16894531,0.04321289,-0.0063476562,0.037353516,-0.106933594,0.22167969,0.111816406,-0.5390625,-0.008666992,0.27734375,-0.068847656,0.27929688,-0.17871094,-0.08642578,0.16992188,0.0134887695,0.16992188,0.05883789,0.03515625,0.083496094,-0.546875,-0.14257812,0.1484375,-0.0040893555,-0.30078125,0.0020751953,0.0625,0.16210938,0.005554199,0.16699219,0.29101562,-0.067871094,0.02722168,-0.09423828,-0.27539062,0.009887695,-0.1484375,0.31835938,-0.104003906,0.16503906,-0.072265625,0.38671875,-0.13671875,-0.12792969,-0.012878418,0.38476562,0.33984375,-0.0079956055,-0.08251953,-0.12988281,-0.025512695,0.041503906,-0.19238281,0.16699219,0.009338379,0.1796875,-0.32421875,0.09375,0.084472656,-0.009216309,-0.037353516,0.1328125,-0.35742188,0.024291992,-0.29296875,0.017089844,-0.026977539,-0.0234375,-0.22851562,0.08300781,-0.22460938,-0.12792969,0.076171875,-0.13964844,0.17480469,0.02331543,0.084472656,-0.09716797,0.12695312,-0.016479492,-0.20898438,-0.265625,-0.091308594,-0.041015625,0.045898438,0.11279297,-0.19921875,0.07519531,-0.27929688,0.05517578,0.07080078,0.053955078,0.032958984,0.22070312,-0.12402344,-0.1484375,0.045410156,0.083984375,-0.11621094,0.076171875,-0.15039062,-0.47070312,-0.18359375,-0.0065612793,0.07714844,0.45703125,-0.17871094,0.02758789,-0.10644531,-0.1328125,0.06640625,-0.123046875,-0.16015625,-0.21484375,-0.27148438,0.052734375,0.03173828,0.24707031,-0.028808594,0.123535156,0.045166016,0.10205078,0.22167969,0.03564453,-0.018066406,-0.265625,-0.03540039,-0.11035156,-0.010192871,0.3359375,-0.5234375,-0.19726562,0.03125,0.056884766,0.1484375,-0.026367188,0.040527344,-0.040771484,0.1796875,-0.14648438
brother,-0.061279297,-0.060302734,0.1953125,-0.13769531,0.15136719,0.22753906,-0.059814453,-0.15039062,0.17871094,0.015319824,0.44335938,-0.14355469,-0.17871094,-0.22558594,-0.32226562,-0.0546875,0.030761719,0.171875,-0.20800781,0.18457031,0.026733398,0.13671875,0.19726562,0.07763672,0.2109375,-0.1796875,-0.17578125,0.10595703,0.13964844,-0.027954102,0.16796875,0.01953125,-0.055664062,0.140625,-0.021850586,0.2421875,0.26367188,-0.0008392334,0.22753906,0.16796875,0.296875,-0.107421875,0.28125,0.01928711,0.25390625,0.140625,-0.14453125,-0.18457031,0.087890625,-0.3125,-0.071777344,0.12988281,0.18652344,-0.20996094,0.29296875,-0.06982422,-0.19238281,0.12890625,-0.265625,-0.06298828,0.08154297,0.0031585693,0.045898438,0.12109375,0.000120162964,0.09423828,0.032226562,-0.119140625,-0.020385742,0.15332031,0.09716797,-0.023925781,-0.19238281,0.23828125,-0.42578125,0.21679688,-0.039794922,-0.09082031,0.1640625,0.020385742,0.20898438,0.0032043457,-0.25,-0.24707031,-0.15429688,-0.03515625,-0.08886719,0.060302734,-0.13085938,-0.071777344,-0.09033203,-0.22363281,-0.16699219,0.12060547,-0.1015625,-0.26757812,-0.0016098022,0.10839844,0.059570312,-0.15527344,-0.13671875,-0.14257812,0.25195312,-0.17871094,-0.109375,-0.12011719,-0.03515625,0.035888672,0.18847656,0.27148438,0.036621094,0.091308594,0.03540039,0.057861328,-0.083496094,-0.009399414,-0.019165039,-0.0859375,0.234375,0.1640625,-0.079589844,0.19921875,-0.02331543,-0.20703125,-0.12695312,-0.20703125,0.19726562,-0.072265625,0.10839844,0.07373047,-0.125,-0.048095703,-0.036621094,0.09814453,-0.055908203,0.08886719,0.08935547,0.265625,0.06542969,0.11621094,0.14355469,0.02319336,0.024902344,-0.06738281,0.11669922,0.048095703,-0.21679688,-0.045410156,-0.018554688,-0.13574219,0.4140625,0.17382812,-0.15136719,0.19628906,0.07470703,-0.060546875,0.05419922,-0.14453125,0.19042969,-0.17480469,-0.00390625,0.16796875,0.11328125,0.18945312,-0.08300781,-0.06542969,0.34179688,-0.0015716553,0.3203125,0.29296875,0.29101562,-0.034423828,0.21875,-0.17382812,-0.18066406,0.13769531,0.14355469,-0.072753906,-0.047851562,0.22558594,-0.010925293,0.07470703,0.030883789,0.063964844,0.09033203,-0.009033203,0.3046875,0.35546875,0.07373047,0.10205078,0.036865234,0.18652344,-0.08496094,-0.025878906,0.24414062,0.09277344,-0.107421875,-0.09326172,-0.014709473,-0.064941406,-0.265625,-0.15527344,-0.26171875,-0.16503906,0.359375,-0.12451172,0.16210938,-0.04345703,0.033935547,-0.20703125,-0.06298828,0.10888672,0.067871094,0.08105469,-0.11328125,0.08203125,-0.20410156,0.18359375,-0.111816406,-0.15722656,0.018920898,-0.14648438,0.32421875,-0.11376953,-0.0041503906,-0.20996094,0.01928711,0.11767578,-0.1484375,-0.067871094,0.07910156,0.052490234,0.071777344,0.12597656,-0.052734375,-0.024169922,-0.24804688,-0.21191406,-0.31054688,0.20507812,-0.27148438,-0.0703125,-0.25,0.08203125,0.10058594,0.35546875,0.051513672,0.13574219,0.103027344,-0.05053711,0.18847656,0.064941406,0.05419922,-0.0019226074,0.10253906,0.029663086,0.048095703,0.095214844,-0.26757812,-0.002532959,0.09375,-0.022705078,0.18359375,-0.17578125,0.010253906,0.122558594,-0.055419922,-0.005432129,-0.0074157715,0.16503906,0.18164062,-0.22949219,0.18359375,0.13671875,0.1328125,-0.16992188,-0.017578125,0.048095703,-0.03955078,-0.076660156,0.17285156,-0.16113281,0.06591797,0.25976562,0.14257812,0.15234375,-0.1796875,0.13769531,0.029541016,0.103027344,-0.21386719,-0.018554688,-0.2578125,-0.20703125,0.08154297,-0.087402344,-0.23144531,-0.39648438,-0.09033203,0.2109375
sign,-0.043701172,0.044433594,-0.09814453,0.05810547,-0.34375,0.15136719,-0.02758789,-0.20800781,0.033447266,0.234375,-0.024658203,-0.29882812,-0.1875,-0.020629883,-0.15527344,0.1171875,0.0019073486,-0.15820312,0.14160156,-0.2109375,0.21582031,0.31054688,-0.23632812,0.030029297,-0.0077819824,-0.083984375,-0.1328125,0.107910156,0.0546875,0.049316406,-0.16210938,0.02734375,-0.107421875,-0.17285156,0.10449219,0.013671875,0.34375,0.056152344,0.011169434,0.171875,0.04345703,-0.16601562,0.011291504,0.067871094,-0.04638672,0.19140625,-0.030273438,0.13183594,-0.28125,0.1484375,-0.042236328,0.11425781,-0.119140625,-0.25,0.15136719,0.19042969,-0.15625,-0.08496094,0.018310547,-0.06640625,0.068359375,-0.15136719,-0.095214844,0.16113281,-0.14746094,-0.03857422,0.028686523,0.053710938,-0.09423828,0.18945312,-0.018798828,0.15039062,0.13867188,-0.2421875,0.02758789,-0.16015625,0.12988281,0.3203125,0.018310547,0.21191406,0.06298828,0.010620117,-0.076660156,-0.18066406,0.122558594,-0.040039062,-0.021118164,-0.107421875,0.21191406,-0.04711914,0.107421875,-0.10253906,0.12451172,-0.22167969,0.021362305,-0.119628906,0.33789062,0.26953125,-0.0011520386,-0.36914062,0.01361084,-0.08105469,0.05810547,0.125,0.12792969,-0.359375,0.24707031,-0.40429688,-0.22460938,0.26367188,-0.14550781,0.047851562,-0.115722656,-0.11376953,0.084472656,-0.14453125,0.21679688,0.12060547,0.16796875,0.10546875,0.15625,0.0064697266,-0.0087890625,0.23535156,0.15429688,0.037597656,0.033935547,0.046142578,0.25390625,0.13378906,0.060546875,-0.08691406,0.21386719,-0.17578125,0.20019531,-0.017211914,-0.25390625,0.12158203,-0.022705078,-0.12011719,-0.16601562,0.0053710938,-0.07714844,-0.08984375,0.09277344,-0.08251953,-0.05883789,-0.17382812,-0.08935547,-0.30078125,0.171875,0.087890625,0.09277344,-0.08642578,-0.048828125,0.34765625,-0.08105469,-0.21582031,0.059326172,0.06689453,0.13574219,-0.083984375,-0.096191406,-0.21679688,0.16894531,-0.21289062,-0.024291992,-0.25,-0.12158203,-0.048828125,-0.046875,-0.060058594,0.119628906,-0.032226562,0.036376953,0.078125,0.014282227,-0.00012874603,0.36328125,-0.13867188,-0.14550781,-0.16601562,0.029296875,-0.020996094,-0.05883789,0.028930664,-0.23632812,0.12060547,-0.005126953,-0.09472656,0.06347656,0.14550781,-0.28320312,0.03881836,-0.041015625,0.13085938,-0.08154297,0.014770508,-0.20800781,-0.13867188,-0.111328125,-0.18945312,-0.079589844,-0.02331543,0.16210938,-0.09716797,0.16210938,-0.052734375,0.18945312,0.055419922,0.099121094,0.17675781,-0.296875,0.007293701,-0.25585938,0.19726562,0.3515625,-0.018798828,-0.16992188,0.07324219,0.08496094,0.016113281,0.06738281,-0.09423828,0.15917969,-0.020141602,0.13378906,0.030883789,0.22753906,-0.26171875,-0.036621094,0.06225586,-0.024536133,0.095703125,-0.06542969,0.025024414,-0.049072266,-0.040283203,0.12695312,-0.0074768066,0.007446289,-0.052978516,0.103027344,-0.033935547,0.08984375,-0.092285156,0.043945312,0.15332031,-0.026245117,-0.017211914,-0.18359375,0.114746094,-0.15136719,0.23925781,0.035888672,0.1015625,0.1484375,0.29296875,-0.11035156,0.012390137,-0.15136719,0.053710938,-0.14550781,-0.19238281,0.080566406,0.063964844,-0.14648438,0.060791016,0.22070312,-0.21484375,0.17382812,0.24414062,0.1015625,-0.13476562,0.118652344,0.18261719,-0.234375,-0.16503906,0.029174805,0.04272461,0.075683594,0.053955078,0.07910156,0.10839844,0.049560547,0.15527344,0.0024871826,0.2421875,-0.08496094,-0.17675781,-0.060302734,0.087890625,0.12011719,-0.011962891,0.107910156,0.028198242,-0.16015625,-0.00491333,0.09863281,-0.29492188
recommendation,-0.2890625,-0.23535156,0.22851562,0.16699219,-0.30664062,-0.122558594,0.25976562,-0.09765625,0.13476562,0.05493164,-0.010620117,-0.023925781,0.20507812,-0.2421875,-0.32421875,0.52734375,-0.087402344,-0.21972656,-0.10205078,-0.14160156,0.114746094,0.14746094,0.02319336,0.063964844,-0.06689453,-0.20117188,0.24902344,0.3515625,-0.19824219,0.22167969,0.064453125,-0.20214844,-0.18652344,-0.15332031,-0.010192871,0.016235352,0.063964844,0.27929688,-0.21289062,-0.50390625,-0.10498047,0.07080078,-0.049804688,-0.071777344,-0.30078125,-0.06298828,0.14746094,-0.3359375,-0.40234375,-0.19335938,0.20019531,-0.08105469,-0.1953125,0.24902344,-0.13085938,-0.050048828,-0.13085938,0.020507812,0.037841797,0.06933594,-0.06689453,0.23925781,-0.04248047,0.12207031,-0.0020141602,-0.052734375,-0.28320312,0.23535156,-0.18261719,0.060791016,-0.0625,-0.40820312,-0.015563965,0.38085938,-0.13769531,0.009155273,0.22851562,-0.068847656,0.06689453,0.24804688,0.18359375,-0.24023438,0.22363281,0.07519531,0.10498047,0.083984375,-0.34960938,0.036376953,0.025756836,-0.05493164,0.17480469,0.0625,0.100097656,0.1328125,0.037353516,-0.024414062,-0.14160156,-0.19238281,0.087402344,-0.31640625,0.02709961,0.014343262,0.083496094,0.03466797,0.051513672,0.08935547,-0.27929688,-0.11425781,-0.034179688,-0.34960938,0.1875,-0.19628906,-0.030761719,-0.043701172,0.24511719,-0.140625,-0.08984375,0.31835938,0.106933594,-0.17675781,-0.23535156,0.04296875,-0.40820312,-0.000831604,0.11425781,0.036621094,0.111816406,-0.12695312,-0.036376953,0.31445312,-0.10546875,0.020263672,0.08203125,-0.099609375,0.08691406,0.12060547,-0.30078125,0.18457031,0.07324219,0.26953125,0.11035156,-0.06933594,0.059570312,-0.3203125,0.1796875,0.107910156,-0.049072266,-0.15820312,0.36132812,0.13867188,0.0703125,0.016235352,0.032714844,0.13964844,0.006958008,-0.3125,0.04345703,0.17382812,-0.28125,-0.0021972656,0.10058594,-0.114746094,0.28710938,0.13574219,-0.28515625,0.08251953,0.17675781,-0.026977539,0.140625,-0.20996094,0.20605469,0.111816406,0.008117676,-0.0019683838,-0.032958984,-0.15917969,0.40429688,0.057373047,0.095703125,0.09375,-0.06298828,-0.16796875,-0.032714844,0.20214844,0.10986328,-0.22558594,0.11669922,-0.16113281,0.17089844,0.0625,-0.37695312,-0.10058594,-0.10205078,-0.103515625,-0.005340576,-0.296875,0.27539062,0.026611328,0.04736328,0.007873535,0.017944336,0.125,0.040771484,-0.15722656,-0.005279541,0.36132812,0.08496094,-0.15136719,0.11376953,-0.2578125,0.067871094,0.049072266,-0.06738281,0.234375,-0.34960938,0.24609375,-0.107421875,0.2734375,0.078125,0.053222656,-0.013305664,0.030639648,-0.060302734,0.04248047,0.106933594,-0.3359375,-0.040039062,-0.067871094,0.23535156,0.3046875,-0.09716797,-0.03515625,0.021240234,0.015136719,-0.0095825195,-0.08935547,-0.12792969,-0.09716797,0.13574219,0.083496094,-0.0014572144,-0.15234375,-0.06201172,-0.33203125,-0.18847656,0.2578125,0.06738281,0.16796875,0.04638672,0.13476562,-0.016601562,0.08251953,-0.21386719,-0.018554688,0.08300781,0.100097656,-0.16503906,0.107910156,0.042236328,0.12792969,0.18847656,0.041992188,-0.24023438,-0.08105469,0.0020751953,0.13964844,-0.0031585693,-0.068359375,-0.27929688,-0.063964844,0.34375,-0.18847656,0.079589844,0.15820312,-0.04345703,-0.15234375,0.028076172,-0.09472656,0.029663086,0.17871094,-0.015014648,0.0038757324,-0.05053711,0.1640625,-0.09326172,0.12060547,0.019165039,0.34375,0.18457031,-0.07910156,-0.171875,0.080078125,0.051513672,-0.08251953,0.2578125,0.12207031,0.09082031,-0.21289062,-0.24316406,0.07910156
ministry,-0.12695312,0.0058898926,-0.072753906,-0.1328125,0.061279297,-0.06225586,0.29492188,-0.19042969,-0.071777344,-0.07910156,-0.033203125,-0.05883789,-0.20214844,0.0095825195,-0.48828125,0.0625,-0.20214844,0.012573242,-0.22265625,-0.10449219,0.30859375,0.030395508,0.08984375,0.10449219,0.25585938,-0.16699219,-0.19335938,-0.11669922,-0.06738281,-0.16503906,-0.095214844,-0.34179688,0.007537842,0.037109375,-0.05859375,-0.22070312,0.13769531,-0.08300781,0.067871094,-0.0234375,0.14160156,0.020874023,0.08300781,0.111816406,0.049560547,-0.15039062,-0.20117188,0.18945312,-0.19238281,-0.015319824,0.0390625,0.020874023,0.15625,0.16015625,-0.064941406,-0.1875,-0.39453125,0.24121094,-0.11767578,0.084472656,-0.056640625,-0.18164062,0.083496094,0.21386719,0.111816406,0.12988281,-0.030761719,-0.056152344,0.03125,0.15722656,-0.24609375,0.079589844,0.10058594,0.171875,-0.27734375,0.078125,0.017211914,0.28320312,0.123535156,0.0115356445,0.11767578,-0.26757812,-0.013977051,0.59765625,0.09033203,0.032226562,-0.15722656,-0.055908203,0.084472656,0.076171875,0.14648438,-0.22070312,-0.15917969,-0.33203125,-0.19238281,0.25390625,-0.115722656,-0.12988281,-0.06982422,-0.26171875,-0.114746094,0.3203125,-0.2890625,-0.05444336,0.17089844,-0.15234375,-0.30859375,-0.3125,0.25585938,-0.033203125,-0.11816406,0.04663086,0.060058594,0.14746094,0.19921875,0.11328125,-0.20019531,0.16113281,0.20996094,0.47460938,-0.14746094,0.04345703,-0.36328125,0.072265625,-0.2890625,0.087402344,0.03491211,-0.22753906,-0.15625,-0.023071289,0.12890625,0.21191406,0.16308594,-0.37109375,0.06640625,-0.119628906,0.26171875,-0.028076172,0.17773438,0.023071289,0.20019531,0.10986328,0.15527344,0.10205078,-0.37304688,-0.13476562,0.09375,-0.12402344,-0.58203125,0.068847656,0.22167969,-0.028198242,-0.122558594,0.095703125,0.091796875,-0.018432617,0.25976562,-0.071777344,0.20019531,0.018188477,0.29492188,-0.109375,0.110839844,-0.0075683594,0.25585938,0.20019531,-0.16699219,0.123535156,0.12890625,-0.08691406,0.08935547,0.053710938,-0.017211914,-0.060302734,0.28515625,0.029296875,0.10107422,-0.15234375,-0.05078125,-0.049804688,-0.2265625,-0.14355469,-0.053710938,-0.21582031,-0.027954102,0.123046875,-0.24316406,0.0055236816,-0.18847656,0.12695312,-0.064453125,0.040771484,-0.28710938,0.37304688,0.07373047,0.2421875,0.16113281,0.032958984,0.15917969,0.047851562,-0.099121094,-0.0023498535,-0.048339844,-0.015319824,-0.2890625,-0.042236328,0.19238281,-0.20019531,0.008850098,-0.03857422,-0.111816406,-0.19335938,-0.053955078,-0.118652344,-0.034179688,-0.017578125,-0.009399414,0.33203125,-0.14160156,0.23828125,-0.12792969,0.015075684,-0.022460938,0.3515625,0.10107422,-0.19628906,-0.20507812,0.31054688,0.3046875,0.17480469,0.26757812,-0.12207031,-0.4140625,0.026367188,0.29296875,0.05078125,0.34765625,0.025268555,-0.22070312,-0.31445312,0.13964844,-0.020263672,-0.12792969,-0.39257812,-0.051513672,-0.27734375,-0.18457031,-0.28710938,0.14453125,-0.15234375,0.20703125,0.005493164,0.15039062,-0.0703125,0.4296875,-0.13671875,-0.001876831,-0.1640625,0.27929688,-0.25195312,0.15722656,0.21777344,0.328125,0.11621094,0.07421875,0.038085938,0.084472656,-0.0012588501,0.078125,0.38671875,0.016479492,0.060302734,-0.0011978149,0.2109375,0.26953125,0.07421875,0.12402344,-0.15527344,0.13574219,0.22460938,-0.11328125,-0.27929688,0.12109375,0.20507812,0.13476562,0.14746094,0.10253906,-0.015258789,0.0703125,0.328125,-0.24707031,0.06542969,0.075683594,-0.07128906,-0.017456055,0.12060547,-0.16699219,-0.17382812,-0.15722656,0.28125
cabbage,-0.18359375,0.30273438,-0.091308594,0.27734375,0.02709961,0.06298828,0.14160156,-0.028320312,-0.19335938,0.12890625,0.079589844,-0.125,0.057373047,0.26757812,-0.35546875,0.1875,-0.23925781,0.041503906,-0.12988281,-0.3125,-0.14941406,0.049560547,0.34375,-0.057861328,0.021606445,-0.265625,-0.14648438,0.12792969,-0.19824219,0.14160156,-0.23632812,0.016113281,0.20410156,-0.11035156,-0.11035156,0.025878906,0.2109375,-0.10986328,0.080078125,0.21289062,0.12792969,-0.44335938,0.20898438,-0.16015625,-0.265625,-0.44335938,-0.16601562,0.037597656,0.06347656,0.03930664,-0.15527344,0.110839844,0.03540039,0.20410156,-0.029174805,-0.1953125,-0.359375,0.10449219,0.06640625,-0.0051574707,-0.20507812,0.07128906,-0.057128906,0.015991211,-0.08935547,-0.32617188,-0.26953125,-0.35742188,0.083496094,0.18457031,0.34960938,-0.23144531,-0.05419922,-0.07519531,-0.040771484,0.04736328,-0.45703125,-0.17871094,0.07714844,0.019165039,0.15820312,-0.10253906,0.06689453,0.10546875,-0.032470703,-0.20898438,-0.10058594,0.16503906,0.03491211,-0.09863281,-0.28710938,-0.24414062,0.17382812,-0.17773438,-0.20898438,0.036865234,0.057373047,0.009521484,0.010803223,-0.21484375,-0.30664062,-0.15527344,0.18359375,0.04736328,-0.1875,0.11230469,-0.0039978027,0.020751953,-0.18945312,-0.22070312,-0.12109375,-0.34570312,0.033447266,0.15429688,-0.109375,-0.044921875,0.14257812,-0.20703125,0.06542969,0.037353516,-0.14550781,-0.114746094,0.026611328,-0.17480469,-0.03930664,-0.017333984,-0.048095703,0.16503906,-0.18945312,0.14453125,-0.10449219,-0.06347656,0.14257812,0.040527344,-0.043701172,0.4453125,0.15234375,-0.060546875,0.12451172,-0.12011719,-0.14550781,-0.10888672,-0.07470703,0.122558594,0.122558594,0.037841797,-0.009155273,0.13867188,-0.59375,0.014953613,0.21972656,-0.053955078,-0.09765625,0.24414062,0.08154297,-0.0703125,-0.072265625,-0.15429688,-0.100097656,-0.09667969,-0.0703125,0.16015625,0.29296875,-0.09667969,-0.006011963,-0.24511719,-0.076660156,0.13867188,-0.09375,0.15136719,-0.22851562,0.37304688,-0.029418945,0.17871094,-0.49023438,-0.40039062,0.15234375,0.27539062,0.06347656,0.034179688,-0.16796875,-0.23242188,-0.20410156,0.15039062,-0.02758789,-0.059326172,-0.10058594,0.084472656,-0.18945312,-0.028442383,-0.119628906,-0.052001953,-0.10058594,-0.076660156,0.20214844,0.171875,0.18457031,0.055419922,-0.34570312,-0.048095703,-0.063964844,-0.14648438,-0.076171875,0.10986328,-0.390625,-0.16992188,0.09082031,0.0052490234,0.03466797,-0.05444336,-0.19726562,-0.09765625,-0.23925781,0.18359375,0.10986328,0.18261719,-0.11767578,0.076660156,0.28320312,0.17382812,0.01550293,-0.048583984,0.24609375,-0.10253906,-0.03564453,-0.0063171387,0.25976562,0.083496094,-0.0119018555,-0.06982422,-0.024291992,-0.3203125,0.08984375,0.39648438,-0.16113281,-0.25976562,-0.017822266,-0.16503906,0.030151367,-0.12207031,-0.016479492,0.17382812,0.107910156,0.052246094,-0.19921875,-0.38085938,-0.07470703,0.111328125,0.16992188,0.14453125,-0.11328125,-0.16308594,0.21582031,0.17285156,0.17578125,-0.46679688,-0.11767578,-0.26757812,0.0009765625,-0.03149414,0.26367188,0.40625,-0.17480469,-0.05444336,0.064941406,-0.00014781952,-0.2890625,0.16601562,0.023071289,-0.22851562,-0.13183594,-0.17285156,0.17578125,-0.09765625,0.25976562,-0.28515625,0.20410156,-0.0087890625,-0.3515625,0.114746094,0.12890625,0.26367188,0.31445312,-0.20800781,-0.30273438,-0.10888672,0.06542969,0.3203125,-0.25195312,0.52734375,-0.09033203,0.046142578,0.07470703,0.24121094,0.24414062,0.05810547,-0.24902344,-0.18066406,0.3203125,0.31835938
music,0.03881836,-0.21679688,-0.053466797,0.03881836,-0.07714844,0.018310547,-0.08935547,-0.234375,-0.06542969,-0.13769531,0.030151367,-0.22949219,0.09326172,0.04663086,0.01550293,-0.044433594,0.09765625,0.14355469,0.032958984,-0.29882812,-0.013000488,0.24609375,-0.080078125,-0.079589844,-0.06201172,0.13085938,-0.05859375,-0.095214844,-0.00680542,0.00010919571,-0.11621094,0.13183594,-0.16503906,0.22949219,0.111816406,-0.25195312,0.1328125,-0.05883789,0.1875,0.064941406,-0.1796875,-0.036376953,-0.10888672,-0.04736328,0.010009766,0.02709961,0.017944336,0.036621094,0.0016098022,0.08496094,0.029907227,-0.023071289,-0.033447266,0.107421875,0.2578125,0.12402344,-0.23046875,0.010314941,-0.1484375,-0.107910156,0.14453125,0.002090454,-0.12988281,-0.08496094,-0.011108398,-0.15234375,-0.16308594,0.17578125,0.063964844,-0.03173828,-0.016113281,-0.09472656,0.064941406,0.111328125,-0.30664062,0.04663086,0.038330078,-0.0625,0.024536133,-0.1875,-0.10546875,-0.07763672,0.27929688,-0.0056152344,-0.17382812,-0.00022983551,-0.23632812,0.25976562,-0.22851562,0.16601562,-0.22949219,-0.1328125,0.009887695,-0.15820312,-0.13964844,-0.03955078,0.26171875,0.083984375,-0.10839844,-0.3046875,-0.075683594,0.30273438,-0.0017623901,0.123046875,-0.1484375,0.23535156,0.34765625,-0.122558594,0.004547119,-0.328125,-0.18945312,0.2109375,0.041015625,-0.15722656,0.123046875,0.25390625,-0.057617188,-0.06201172,0.024536133,0.0154418945,-0.0010528564,-0.047607422,-0.087890625,0.087402344,0.0047302246,-0.08154297,-0.15625,-0.15332031,-0.22070312,-0.22753906,-0.049560547,-0.055908203,0.12011719,0.060058594,0.076171875,0.31835938,0.03540039,0.008666992,-0.02368164,0.012878418,0.15625,-0.11376953,-0.25,0.21679688,-0.067871094,-0.09423828,0.6015625,0.18261719,-0.29882812,0.03881836,0.15527344,0.24609375,-0.09277344,0.19433594,-0.18359375,-0.10058594,0.019042969,-0.09814453,-0.29296875,-0.28320312,-0.26367188,0.15039062,-0.19433594,0.41601562,0.07910156,0.005004883,0.08544922,-0.14648438,-0.08642578,-0.20507812,-0.0053710938,0.07910156,0.20605469,-0.125,-0.0703125,-0.01171875,0.099121094,-0.15234375,-0.14355469,0.1171875,-0.021972656,-0.012451172,-0.103027344,-0.12158203,0.17285156,0.16210938,-0.011657715,-0.03173828,0.23144531,0.09863281,0.103515625,0.06982422,-0.095214844,-0.049072266,0.0057678223,0.0390625,0.002746582,0.0035552979,-0.20898438,0.024902344,0.049804688,-0.07470703,0.029174805,-0.1953125,0.044677734,-0.18945312,0.15234375,-0.02722168,-0.20898438,0.096191406,-0.10107422,0.21972656,-0.06347656,-0.022705078,0.02734375,-0.18847656,-0.0099487305,-0.053710938,-0.19921875,-0.28320312,-0.08105469,0.067871094,0.09326172,-0.107421875,0.04663086,0.18359375,-0.12695312,-0.23730469,0.084472656,0.063964844,-0.1484375,-0.18945312,-0.4453125,0.15722656,0.3046875,-0.044433594,0.07470703,-0.21289062,0.043945312,0.15917969,0.13867188,-0.19140625,-0.064941406,-0.15429688,-0.0051574707,-0.15820312,0.16210938,0.12109375,0.10205078,-0.06982422,0.23144531,0.1953125,-0.17675781,0.12158203,0.13769531,0.05419922,0.08544922,-0.07861328,0.060546875,-0.083984375,-0.040283203,0.0019836426,0.12695312,-0.06201172,-0.25976562,0.26953125,-0.13769531,0.068359375,-0.20019531,-0.20019531,0.010070801,-0.16210938,0.08105469,0.16894531,0.25976562,-0.034423828,-0.07519531,-0.047607422,-0.099609375,-0.025268555,-0.1796875,0.07910156,-0.04345703,0.016357422,-0.013000488,-0.038085938,0.27539062,0.033691406,0.20019531,0.44140625,-0.15136719,0.0087890625,-0.25976562,-0.14453125,0.12109375,0.07421875,0.23339844,-0.09082031,0.16113281,0.12792969
sex,0.04663086,0.056152344,-0.084472656,0.06347656,-0.43945312,-0.13671875,-0.12695312,0.045410156,0.25195312,0.171875,0.080078125,-0.16699219,-0.15234375,0.20214844,-0.111328125,0.044921875,-0.033691406,0.040771484,0.28320312,-0.21484375,0.17871094,-0.103515625,0.05444336,0.18261719,-0.0011825562,-0.30859375,-0.049804688,0.38867188,0.40429688,0.100097656,-0.09082031,-0.16796875,-0.055419922,-0.1953125,0.0625,-0.030029297,-0.009521484,0.07910156,0.056640625,0.24804688,-0.2265625,-0.068847656,0.056152344,0.022583008,-0.0119018555,-0.17285156,0.2265625,0.057861328,-0.05493164,0.15039062,0.15722656,-0.29296875,-0.28710938,-0.118652344,-0.122558594,-0.15917969,-0.13476562,-0.42382812,-0.13964844,0.38476562,0.390625,0.1640625,-0.1328125,0.27148438,-0.0099487305,-0.25195312,-0.22167969,0.13671875,0.13183594,-0.23242188,-0.07861328,0.3984375,0.123046875,0.34960938,0.04711914,0.10253906,0.036865234,-0.009765625,0.103027344,0.08886719,-0.20605469,-0.17480469,-0.083984375,0.052246094,-0.22851562,-0.11328125,-0.021972656,0.39257812,0.13085938,0.10449219,-0.14746094,0.14941406,-0.37304688,0.13769531,-0.0066223145,-0.14746094,0.46679688,-0.032226562,0.017944336,0.10107422,0.018310547,0.08496094,-0.10888672,-0.13671875,0.34765625,-0.2734375,-0.09814453,-0.23828125,0.052246094,-0.05126953,0.115722656,0.1328125,-0.037109375,0.05859375,-0.057373047,-0.34375,0.36132812,-0.033935547,0.125,0.23046875,-0.099609375,0.36523438,-0.14550781,0.29882812,0.08105469,-0.13574219,-0.07421875,-0.13671875,-0.0007171631,0.15136719,-0.26757812,-0.45703125,-0.19824219,0.119628906,-0.014099121,0.39648438,0.140625,-0.03125,0.13964844,0.052001953,0.17480469,-0.33007812,-0.15820312,-0.03540039,-0.30664062,0.026977539,0.050048828,0.32226562,-0.25585938,-0.0390625,0.77734375,-0.075683594,0.006591797,-0.29101562,0.079589844,-0.23632812,-0.18164062,-0.296875,0.18847656,-0.5234375,0.14257812,-0.026367188,0.35351562,0.3203125,-0.20800781,0.04345703,-0.114746094,-0.078125,-0.43945312,-0.0038452148,0.06201172,-0.12011719,0.15625,-0.032958984,-0.055664062,0.20507812,0.080566406,0.042236328,-0.09765625,0.010131836,0.031982422,0.17480469,0.030517578,-0.013671875,-0.064453125,-0.10986328,0.14160156,-0.3828125,0.15429688,-0.09033203,0.26757812,-0.017700195,-0.13671875,0.103027344,0.31835938,0.27929688,0.068359375,-0.06591797,-0.10986328,-0.020507812,0.016967773,0.052734375,0.12792969,-0.40625,0.061523438,0.015563965,0.01940918,-0.13574219,-0.067871094,-0.035888672,-0.22167969,0.14355469,-0.028686523,-0.31445312,0.061523438,-0.22363281,0.057617188,0.36523438,-0.036621094,0.046142578,-0.09375,-0.28320312,0.15234375,-0.12158203,-0.018066406,0.0859375,-0.08544922,-0.0003528595,-0.16308594,0.018310547,-0.030151367,-0.17089844,-0.05102539,-0.13476562,-0.0078125,-0.37304688,0.0048217773,-0.26757812,0.02355957,-0.028076172,0.35546875,-0.06591797,-0.107910156,-0.07128906,-0.17285156,-0.100097656,-0.061279297,0.17578125,0.05908203,-0.03540039,0.15429688,0.26757812,0.265625,-0.25390625,0.12207031,0.22753906,-0.0154418945,-0.080566406,0.17382812,0.18164062,-0.29492188,-0.16503906,-0.063964844,0.29492188,0.09375,0.19335938,-0.063964844,0.111816406,-0.111816406,0.048583984,0.095703125,0.1875,-0.06933594,0.16210938,0.16796875,0.10546875,-0.1796875,0.017089844,-0.13574219,-0.08691406,-0.01550293,-0.10546875,0.15332031,0.08496094,0.050048828,-0.08544922,-0.16992188,-0.43945312,-0.25390625,0.43359375,0.023925781,0.23828125,-0.09814453,0.16210938,-0.067871094,0.26171875,0.24316406,0.078125,-0.1796875,0.16308594
Yale,-0.37695312,0.08496094,0.055419922,0.26367188,0.125,-0.096191406,0.028320312,-0.22460938,0.12158203,-0.32226562,0.099121094,-0.016479492,-0.012268066,0.15722656,-0.052978516,-0.18164062,-0.07861328,-0.21191406,0.21191406,-0.12695312,-0.06982422,-0.053710938,0.09716797,0.10058594,0.056640625,0.008483887,-0.05444336,0.15527344,-0.14453125,0.34765625,0.13476562,-0.30859375,-0.20507812,-0.12890625,0.26367188,0.25390625,0.0625,-0.12792969,-0.10253906,0.25,0.07373047,0.18652344,-0.15917969,-0.0043945312,-0.27734375,0.24511719,-0.3046875,0.091308594,0.106933594,0.0032348633,0.114746094,0.05102539,0.037597656,-0.26367188,0.20996094,-0.025024414,0.10888672,-0.103027344,-0.022094727,-0.20507812,-0.008056641,-0.052490234,-0.048583984,-0.005432129,0.08886719,0.006011963,0.12451172,0.13964844,-0.06738281,-0.01928711,-0.21972656,0.15917969,0.37304688,-0.2421875,0.017456055,-0.12060547,0.047851562,0.1953125,0.13476562,0.26953125,-0.026245117,0.021850586,0.20507812,-0.15234375,-0.12402344,-0.38867188,-0.096191406,0.11767578,-0.14746094,-0.36523438,-0.2890625,-0.29882812,-0.10253906,0.07470703,0.08984375,-0.099609375,0.27929688,-0.16308594,-0.4140625,-0.118652344,0.16503906,-0.25,-0.16992188,-0.06933594,0.1875,-0.00063323975,-0.056640625,-0.19238281,-0.13085938,0.028198242,-0.28320312,-0.018920898,0.30273438,-0.003112793,0.20996094,-0.021484375,-0.15820312,-0.31640625,0.06225586,0.35546875,-0.16210938,-0.171875,0.12011719,-0.10058594,-0.13378906,-0.09716797,0.5,0.18554688,-0.07519531,0.17675781,-0.057861328,-0.16894531,-0.42578125,0.022705078,0.016967773,-0.16992188,-0.067871094,0.23632812,-0.16699219,-0.11376953,-0.29296875,-0.11621094,0.063964844,0.07128906,0.28320312,0.41210938,-0.06640625,0.34765625,-0.02319336,-0.026733398,0.421875,-0.28515625,-0.09082031,0.23046875,0.25976562,-0.100097656,0.024047852,0.1328125,-0.15429688,0.075683594,-0.25,-0.21972656,0.32226562,0.103515625,0.087402344,-0.21484375,0.040039062,0.037353516,-0.036621094,0.011474609,-0.265625,0.18457031,-0.18066406,0.18554688,0.005432129,0.03930664,-0.010314941,-0.011108398,-0.24511719,0.140625,0.05444336,0.14941406,0.18261719,-0.032958984,0.05126953,0.15234375,0.11279297,-0.12792969,0.30664062,0.0703125,0.1796875,-0.045654297,0.0859375,0.2734375,-0.296875,0.10595703,0.125,-0.390625,0.0036315918,0.061767578,-0.16992188,0.27539062,0.0046081543,-0.028076172,-0.2265625,0.071777344,0.03491211,-0.08984375,-0.42578125,0.122558594,-0.22558594,-0.20507812,0.2578125,-0.022094727,-0.37304688,0.41992188,-0.10449219,0.09863281,0.06347656,-0.30273438,-0.40234375,0.013061523,-0.07470703,-0.28125,0.096191406,0.122558594,-0.11816406,0.059326172,-0.09033203,-0.13574219,-0.007232666,0.041015625,0.11279297,-0.064453125,0.048583984,0.021484375,-0.07910156,-0.075683594,-0.20214844,0.028320312,0.296875,-0.25390625,-0.21386719,0.18554688,-0.16601562,0.064453125,-0.020263672,0.083984375,-0.016967773,0.095214844,-0.09863281,0.053710938,-0.18457031,0.016357422,0.040283203,-0.15527344,0.076660156,-0.23632812,-0.076171875,0.03540039,0.29492188,0.111816406,-0.1484375,-0.25390625,-0.06225586,-0.03100586,-0.15625,-0.44140625,0.41601562,-0.09667969,0.051757812,0.087402344,0.02355957,0.106933594,0.123046875,0.05859375,0.17773438,-0.18847656,-0.028686523,0.18359375,-0.03955078,-0.22851562,0.11279297,0.24121094,0.010620117,-0.006286621,0.12988281,-0.016601562,0.12011719,-0.025756836,-0.04248047,-0.011779785,-0.35546875,0.06225586,-0.15234375,-0.092285156,-0.021606445,-0.041015625,-0.171875,0.14550781
